<?xml version="1.0"?>
<opencv_storage>
<opencv_ml_svm>
  <format>3</format>
  <svmType>C_SVC</svmType>
  <kernel>
    <type>RBF</type>
    <gamma>3.3750000000000002e-02</gamma></kernel>
  <C>2.5000000000000000e+00</C>
  <term_criteria><iterations>20000</iterations></term_criteria>
  <var_count>352</var_count>
  <class_count>2</class_count>
  <class_labels type_id="opencv-matrix">
    <rows>2</rows>
    <cols>1</cols>
    <dt>i</dt>
    <data>
      0 1</data></class_labels>
  <sv_total>496</sv_total>
  <support_vectors>
    <_>
      3.33333343e-01 6.06060624e-02 3.03030312e-02 3.03030312e-02
      1.81818187e-01 4.24242437e-01 3.93939406e-01 3.03030312e-01
      4.84848499e-01 9.39393997e-01 1. 1. 9.69696999e-01 8.78787875e-01
      7.87878811e-01 9.69696999e-01 9.69696999e-01 9.69696999e-01
      8.18181872e-01 6.36363626e-01 6.06060624e-01 4.24242437e-01
      5.15151501e-01 5.75757623e-01 6.36363626e-01 7.27272749e-01
      7.57575750e-01 8.18181872e-01 9.39393997e-01 9.69696999e-01
      9.39393997e-01 9.09090936e-01 7.87878811e-01 6.96969748e-01
      6.06060624e-01 5.45454562e-01 4.84848499e-01 2.72727281e-01
      3.93939406e-01 4.84848499e-01 5.75757623e-01 6.66666687e-01
      6.66666687e-01 6.96969748e-01 5.75757623e-01 4.54545468e-01
      4.24242437e-01 7.57575750e-01 8.48484874e-01 9.09090936e-01
      8.18181872e-01 8.48484874e-01 8.78787875e-01 9.09090936e-01
      9.39393997e-01 9.39393997e-01 9.69696999e-01 8.48484874e-01
      6.96969748e-01 5.45454562e-01 4.54545468e-01 2.12121218e-01
      1.21212125e-01 9.09090936e-02 2.12121218e-01 3.03030312e-01
      3.33333343e-01 3.03030312e-01 2.42424250e-01 5.15151501e-01
      6.36363626e-01 7.27272749e-01 7.87878811e-01 7.57575750e-01
      5.75757623e-01 4.54545468e-01 3.03030312e-01 2.42424250e-01
      6.06060624e-02 3.03030312e-02 3.03030312e-02 3.33333343e-01
      4.54545468e-01 4.54545468e-01 5.15151501e-01 5.45454562e-01
      5.75757623e-01 6.36363626e-01 6.06060624e-01 6.06060624e-01
      6.36363626e-01 6.36363626e-01 5.45454562e-01 4.84848499e-01
      3.63636374e-01 3.03030312e-02 3.03030312e-02 3.03030312e-02
      3.03030312e-02 3.03030312e-02 6.06060624e-02 3.03030312e-02
      3.93939406e-01 7.27272749e-01 7.27272749e-01 6.96969748e-01
      6.36363626e-01 9.09090936e-02 3.03030312e-02 3.03030312e-02
      3.03030312e-02 3.03030312e-02 3.03030312e-02 2.12121218e-01
      6.66666687e-01 7.57575750e-01 7.57575750e-01 7.87878811e-01
      7.57575750e-01 5.45454562e-01 5.15151501e-01 5.15151501e-01
      5.45454562e-01 5.75757623e-01 5.45454562e-01 4.84848499e-01
      2.72727281e-01 1.21212125e-01 3.03030312e-02 3.03030312e-02
      3.03030312e-02 3.03030312e-02 3.03030312e-02 6.06060624e-02
      1.81818187e-01 3.33333343e-01 1. 6.14814818e-01 4.29629624e-01
      2.51851857e-01 1.03703700e-01 2.00000003e-01 3.85185182e-01
      4.88888890e-01 5.48148155e-01 5.70370376e-01 5.62962949e-01
      4.88888890e-01 4.51851845e-01 4.59259242e-01 5.48148155e-01
      5.77777743e-01 5.55555522e-01 5.70370376e-01 5.18518507e-01
      4.88888890e-01 4.81481463e-01 4.66666669e-01 4.88888890e-01
      4.66666669e-01 4.96296287e-01 5.11111081e-01 4.96296287e-01
      4.96296287e-01 5.18518507e-01 4.96296287e-01 3.92592579e-01
      3.25925916e-01 3.25925916e-01 3.33333313e-01 2.88888872e-01
      9.62962955e-02 1. 0. 7.27272732e-03 5.99999987e-02 0.
      1.25454545e-01 3.49090904e-01 0. 1.78181812e-01 3.45454551e-02
      1.99999996e-02 2.43636370e-01 5.09090908e-02 3.63636374e-01
      1.23636365e-01 7.99999982e-02 1.41818181e-01 2.54545454e-02
      2.54545454e-02 1.23636365e-01 2.49090910e-01 7.45454580e-02
      1.45454546e-02 7.27272732e-03 1.01818182e-01 7.09090903e-02
      1.81818183e-03 0. 0. 0. 1.29090905e-01 0. 0. 0. 1.09090907e-02
      1.45454546e-02 3.63636352e-02 0. 0. 0. 0. 0. 5.45454537e-03
      1.81818183e-03 0. 0. 0. 0. 0. 0. 1.45454546e-02 0. 0. 0. 0.
      3.63636366e-03 0. 0. 0. 0. 1.81818183e-03 0. 0. 0. 0. 0.
      5.45454537e-03 0. 0. 0. 1.81818183e-03 0. 0. 0. 0. 5.09090908e-02
      0. 0. 0. 0. 5.45454537e-03 0. 0. 1.27272727e-02 0. 0. 0. 0. 0. 0.
      9.09090880e-03 1.81818183e-03 0. 3.63636366e-03 0. 1.81818183e-03
      2.90909093e-02 0. 2.18181815e-02 0. 9.09090880e-03 5.09090908e-02
      2.18181815e-02 1.27272725e-01 5.63636385e-02 1.56363636e-01
      2.18181819e-01 2.18181819e-01 1.85454547e-01 2.98181832e-01
      3.58181834e-01 3.18181813e-01 2.18181819e-01 1.32727280e-01
      2.10909098e-01 1.25454545e-01 1.54545456e-01 5.45454537e-03
      9.09090880e-03 9.09090880e-03 3.72727275e-01 1.81818183e-03
      3.45454551e-02 5.45454537e-03 4.54545468e-02 1.70909092e-01
      1.19999997e-01 1.81818183e-03 1.27272727e-02 1.27272727e-02
      3.99999991e-02 1.81818183e-03 8.18181857e-02 5.27272746e-02 0. 0.
      0. 0. 1.63636357e-02 0. 1.34545460e-01 2.54545454e-02 0. 0. 0.
      6.36363626e-02 0. 0. 0. 0. 4.36363630e-02 0. 0. 1.81818183e-03 0.
      0. 9.63636339e-02 0. 0. 0. 7.45454580e-02 0. 0. 1.99999996e-02
      9.09090880e-03 2.14545459e-01 0. 0. 0. 1.81818176e-02
      1.58181816e-01 0. 0. 2.23636359e-01 7.27272732e-03 1.09090907e-02
      0. 1.07272729e-01 3.63636366e-03 0.</_>
    <_>
      9.44444478e-01 9.44444478e-01 2.77777780e-02 0. 0. 3.05555552e-01
      8.61111104e-01 9.16666687e-01 5.27777791e-01 2.50000000e-01
      1.38888896e-01 1.66666672e-01 2.50000000e-01 3.05555552e-01
      3.88888896e-01 1.66666672e-01 1.11111112e-01 1.38888896e-01
      4.72222239e-01 6.11111104e-01 8.61111104e-01 8.61111104e-01
      8.61111104e-01 8.88888896e-01 7.50000000e-01 5.55555582e-01
      5.00000000e-01 2.50000000e-01 1.94444448e-01 1.94444448e-01
      2.50000000e-01 8.33333358e-02 5.55555560e-02 0. 1.66666672e-01
      2.77777791e-01 4.16666657e-01 5.27777791e-01 7.50000000e-01
      7.77777791e-01 8.61111104e-01 8.05555582e-01 7.22222209e-01
      7.50000000e-01 8.88888896e-01 8.33333313e-01 8.33333313e-01
      7.22222209e-01 6.94444478e-01 6.66666687e-01 6.94444478e-01
      7.22222209e-01 7.22222209e-01 4.16666657e-01 3.33333343e-01
      3.33333343e-01 2.22222224e-01 3.61111104e-01 5.00000000e-01
      6.11111104e-01 6.66666687e-01 7.22222209e-01 8.61111104e-01
      8.88888896e-01 8.33333313e-01 6.38888896e-01 6.11111104e-01
      4.72222239e-01 3.33333343e-01 3.33333343e-01 4.72222239e-01
      3.33333343e-01 3.61111104e-01 3.61111104e-01 3.05555552e-01
      3.88888896e-01 4.72222239e-01 6.11111104e-01 7.50000000e-01
      9.44444478e-01 9.16666687e-01 8.88888896e-01 6.66666687e-01
      5.27777791e-01 4.72222239e-01 5.00000000e-01 4.44444448e-01
      4.16666657e-01 4.16666657e-01 4.44444448e-01 3.88888896e-01
      2.22222224e-01 3.33333343e-01 3.88888896e-01 5.00000000e-01
      6.38888896e-01 7.50000000e-01 6.94444478e-01 6.38888896e-01
      2.77777791e-01 1.94444448e-01 1.38888896e-01 1.11111112e-01
      1.94444448e-01 2.50000000e-01 3.05555552e-01 3.88888896e-01
      4.44444448e-01 3.33333343e-01 3.61111104e-01 5.27777791e-01
      6.11111104e-01 8.33333313e-01 9.16666687e-01 9.16666687e-01
      9.16666687e-01 3.61111104e-01 2.77777791e-01 2.77777791e-01
      3.05555552e-01 4.44444448e-01 4.44444448e-01 5.00000000e-01
      5.27777791e-01 4.44444448e-01 3.33333343e-01 3.33333343e-01
      3.88888896e-01 5.00000000e-01 7.77777791e-01 8.33333313e-01 0.
      2.77777780e-02 8.33333358e-02 9.44444478e-01 1. 9.00900923e-03
      9.00900923e-03 5.22522509e-01 8.73873889e-01 6.03603601e-01
      5.31531572e-01 5.22522509e-01 4.77477491e-01 4.68468487e-01
      6.03603601e-01 7.02702701e-01 7.11711705e-01 7.74774790e-01
      7.20720768e-01 6.84684694e-01 5.94594598e-01 5.67567587e-01
      5.49549580e-01 6.12612605e-01 6.84684694e-01 7.20720768e-01
      7.20720768e-01 6.66666687e-01 6.84684694e-01 6.66666687e-01
      5.67567587e-01 5.58558583e-01 5.85585594e-01 6.30630672e-01
      7.47747779e-01 9.81981993e-01 1. 9.45945978e-01 6.66666687e-01
      1.08108111e-01 4.41441447e-01 3.49576287e-02 1.05932204e-03
      4.23728814e-03 1.90677959e-02 9.53389797e-03 4.34322022e-02
      2.22457629e-02 2.43644062e-02 3.49576287e-02 4.34322022e-02
      4.55508493e-02 8.05084780e-02 5.82627133e-02 1.54661015e-01
      1.29237294e-01 2.81779647e-01 4.31144059e-01 7.25635588e-01
      9.09957647e-01 1. 6.87500000e-01 2.54237294e-01 8.05084780e-02
      2.54237279e-02 1.58898309e-02 4.23728814e-03 4.23728814e-03
      5.29661030e-03 2.11864407e-03 1.05932204e-03 5.29661030e-03 0. 0.
      0. 0. 0. 1.05932204e-03 0. 0. 0. 1.05932204e-03 2.11864407e-03
      1.05932204e-03 1.05932204e-03 0. 2.11864407e-03 0. 0.
      1.05932204e-03 0. 2.11864407e-03 0. 0. 0. 0. 0. 0. 0. 0. 0.
      1.05932204e-03 0. 0. 0. 0. 0. 0. 0. 0. 0. 1.05932204e-03 0. 0. 0.
      0. 1.05932204e-03 0. 0. 0. 0. 0. 0. 0. 0. 0. 0. 0. 0. 0. 0. 0. 0.
      0. 0. 0. 0. 0. 0. 0. 0. 0. 0. 0. 0. 0. 0. 0. 0. 0. 0. 0. 0. 0. 0.
      0. 0. 0. 0. 0. 0. 0. 0. 0. 0. 0. 0. 0. 0. 0. 0. 0. 0. 0. 0. 0. 0.
      0. 0. 0. 0. 0. 0. 0. 0. 0. 0. 0. 0. 0. 0. 0. 0. 0. 0. 0. 0.
      1.05932204e-03 1.05932204e-03 1.05932204e-03 0. 1.05932204e-03 0.
      1.05932204e-03 2.11864407e-03 0. 1.05932204e-03 0. 0. 0.
      1.05932204e-03 2.11864407e-03 0. 0. 5.29661030e-03 3.17796599e-03
      0. 3.17796599e-03 4.23728814e-03 2.11864407e-03 2.11864407e-03</_>
    <_>
      0. 0. 0. 0. 0. 0. 0. 6.89655170e-02 6.89655185e-01 0.
      3.44827585e-02 3.44827585e-02 2.06896544e-01 3.44827592e-01
      4.13793087e-01 4.13793087e-01 5.51724136e-01 3.79310340e-01
      2.75862068e-01 5.51724136e-01 6.55172408e-01 3.10344815e-01
      2.06896544e-01 1.03448272e-01 0. 0. 0. 6.89655170e-02
      2.41379306e-01 3.44827592e-01 4.48275864e-01 5.51724136e-01
      4.13793087e-01 4.13793087e-01 4.82758611e-01 5.51724136e-01
      4.48275864e-01 3.44827592e-01 1.72413796e-01 0. 0. 0. 0. 0. 0. 0.
      0. 0. 0. 5.17241359e-01 6.55172408e-01 7.24137902e-01
      2.41379306e-01 2.06896544e-01 1.72413796e-01 2.06896544e-01
      2.06896544e-01 2.06896544e-01 3.79310340e-01 3.79310340e-01
      3.10344815e-01 6.89655170e-02 0. 0. 0. 7.93103456e-01
      7.93103456e-01 7.24137902e-01 2.06896544e-01 1.72413796e-01
      2.06896544e-01 2.75862068e-01 4.13793087e-01 4.82758611e-01
      5.86206913e-01 4.48275864e-01 2.75862068e-01 0. 0. 0. 0.
      4.82758611e-01 5.86206913e-01 5.51724136e-01 3.10344815e-01
      3.10344815e-01 2.41379306e-01 2.75862068e-01 2.75862068e-01
      3.44827592e-01 5.51724136e-01 4.82758611e-01 3.44827592e-01 0. 0.
      0. 0. 2.75862068e-01 3.44827592e-01 2.41379306e-01 2.75862068e-01
      3.10344815e-01 3.44827592e-01 3.79310340e-01 5.17241359e-01
      5.17241359e-01 6.20689631e-01 5.17241359e-01 3.10344815e-01 0. 0.
      0. 5.51724136e-01 6.55172408e-01 6.89655185e-01 2.41379306e-01
      2.75862068e-01 1.72413796e-01 2.06896544e-01 2.41379306e-01
      2.41379306e-01 3.44827592e-01 6.89655185e-01 6.20689631e-01
      1.03448272e-01 3.44827585e-02 0. 1. 1.72413796e-01 0. 0. 0. 0. 0.
      0. 0. 0. 0. 1.32352948e-01 4.41176482e-02 5.88235296e-02
      1.47058824e-02 0. 1.76470593e-01 8.23529422e-01 1. 8.67647052e-01
      5.73529422e-01 4.70588237e-01 4.41176474e-01 4.26470578e-01
      5.29411793e-01 6.76470578e-01 6.91176474e-01 5.88235319e-01
      5.88235319e-01 5.58823526e-01 5.58823526e-01 5.44117630e-01
      5.44117630e-01 5.88235319e-01 6.61764681e-01 6.61764681e-01
      6.91176474e-01 8.67647052e-01 7.35294104e-01 3.82352948e-01
      1.47058824e-02 1.47058824e-02 1.47058824e-02 0. 0. 3.42995167e-01
      0. 0. 1.44927539e-02 0. 0. 1.11111112e-01 0. 0. 0. 0.
      5.79710156e-02 0. 1.49758458e-01 0. 0. 0. 0. 0. 7.24637657e-02
      2.07729459e-01 6.28019348e-02 0. 0. 1.64251208e-01 7.24637657e-02
      0. 0. 0. 0. 3.33333343e-01 0. 0. 0. 6.28019348e-02 1.15942031e-01
      1.49758458e-01 0. 9.66183562e-03 9.66183562e-03 5.79710156e-02 0.
      2.89855063e-01 2.36714974e-01 0. 0. 1.93236712e-02 0.
      2.41545886e-02 4.83091781e-03 2.75362313e-01 1.54589370e-01
      1.93236712e-02 3.38164233e-02 1.93236712e-02 2.17391297e-01
      1.25603870e-01 5.31400964e-02 6.28019348e-02 1.44927539e-02
      2.46376812e-01 5.31400964e-02 1.15942031e-01 1.30434781e-01
      4.34782617e-02 7.72946849e-02 4.87922698e-01 1.30434781e-01
      1.11111112e-01 2.36714974e-01 2.89855063e-01 9.17874351e-02
      9.17874351e-02 1.88405797e-01 3.18840563e-01 2.80193239e-01
      1.35265693e-01 9.66183543e-02 0. 3.33333343e-01 9.08212543e-01
      3.38164233e-02 3.38164233e-02 4.25120771e-01 3.81642520e-01
      2.75362313e-01 3.38164233e-02 7.68115938e-01 1.20772943e-01
      3.86473425e-02 1. 1.06280193e-01 1.64251208e-01 2.94685990e-01
      9.66183562e-03 7.48792231e-01 6.18357480e-01 1.44927539e-02
      7.63285041e-01 1.20772943e-01 4.34782617e-02 8.35748792e-01
      3.38164233e-02 8.84057939e-01 4.05797094e-01 1.40096620e-01
      6.08695626e-01 5.79710156e-02 2.27053136e-01 3.09178740e-01
      3.38164240e-01 4.39613521e-01 1.15942031e-01 2.17391297e-01
      2.51207739e-01 2.36714974e-01 1.83574870e-01 0. 0. 2.41545886e-02
      6.76328480e-01 0. 5.31400964e-02 0. 1.44927531e-01 3.91304344e-01
      2.65700489e-01 4.83091781e-03 4.34782617e-02 1.44927539e-02
      1.20772943e-01 0. 1.78743958e-01 1.69082120e-01 4.83091781e-03
      3.86473425e-02 9.66183562e-03 0. 7.72946849e-02 0. 2.12560385e-01
      1.25603870e-01 1.93236712e-02 4.83091781e-03 4.83091781e-03
      2.51207739e-01 6.76328465e-02 1.93236712e-02 4.83091781e-03 0.
      1.93236709e-01 0. 9.66183562e-03 2.89855078e-02 0. 3.86473425e-02
      2.60869563e-01 1.93236712e-02 4.83091772e-02 1.93236712e-02
      1.20772943e-01 4.83091781e-03 0. 1.06280193e-01 6.28019348e-02
      1.83574870e-01 4.34782617e-02 0. 0. 1.93236712e-02 1.59420282e-01
      0. 0. 1.40096620e-01 4.83091781e-03 9.66183562e-03 0.
      5.79710156e-02 0. 0.</_>
    <_>
      0. 3.61111104e-01 8.05555582e-01 9.16666687e-01 9.44444478e-01
      8.88888896e-01 8.05555582e-01 7.77777791e-01 9.44444478e-01
      9.72222209e-01 9.72222209e-01 9.16666687e-01 7.22222209e-01
      6.38888896e-01 4.72222239e-01 2.77777780e-02 0. 8.33333358e-02
      8.88888896e-01 9.44444478e-01 9.72222209e-01 1. 1. 9.44444478e-01
      8.88888896e-01 8.05555582e-01 7.50000000e-01 7.50000000e-01
      6.66666687e-01 6.66666687e-01 6.94444478e-01 6.38888896e-01
      5.27777791e-01 3.33333343e-01 2.77777780e-02 0. 0. 0. 0. 0. 0. 0.
      0. 0. 1.94444448e-01 4.44444448e-01 5.83333313e-01 6.66666687e-01
      6.66666687e-01 6.94444478e-01 7.50000000e-01 8.33333313e-01
      8.33333313e-01 8.05555582e-01 8.33333313e-01 7.77777791e-01
      7.22222209e-01 6.66666687e-01 5.83333313e-01 2.22222224e-01 0. 0.
      4.72222239e-01 9.16666687e-01 9.72222209e-01 9.72222209e-01
      9.72222209e-01 8.05555582e-01 2.22222224e-01 2.22222224e-01
      2.22222224e-01 2.22222224e-01 2.22222224e-01 2.22222224e-01
      1.94444448e-01 1.94444448e-01 1.66666672e-01 1.11111112e-01 0. 0.
      0. 1.94444448e-01 3.88888896e-01 5.27777791e-01 6.11111104e-01
      6.94444478e-01 6.94444478e-01 6.66666687e-01 6.94444478e-01
      7.22222209e-01 8.05555582e-01 8.61111104e-01 8.05555582e-01
      7.50000000e-01 6.38888896e-01 5.27777791e-01 3.05555552e-01 0. 0.
      0. 1.11111112e-01 1.66666672e-01 1.66666672e-01 1.66666672e-01
      1.66666672e-01 1.94444448e-01 5.00000000e-01 6.94444478e-01
      8.33333313e-01 9.16666687e-01 8.33333313e-01 5.83333313e-01
      4.72222239e-01 3.88888896e-01 2.77777791e-01 2.22222224e-01 0. 0.
      0. 3.61111104e-01 5.00000000e-01 5.83333313e-01 6.38888896e-01
      6.94444478e-01 6.38888896e-01 6.66666687e-01 7.50000000e-01
      8.05555582e-01 7.77777791e-01 7.50000000e-01 7.22222209e-01
      5.83333313e-01 4.44444448e-01 2.50000000e-01 5.55555560e-02 0.
      5.93750000e-01 7.29166687e-01 8.54166687e-01 9.37500000e-01
      9.79166687e-01 1. 9.47916687e-01 8.64583373e-01 8.12500000e-01
      7.50000000e-01 6.04166687e-01 5.31250000e-01 4.89583343e-01
      5.31250000e-01 5.83333373e-01 5.93750000e-01 6.35416687e-01
      6.25000000e-01 6.25000000e-01 6.25000000e-01 6.14583373e-01
      5.93750000e-01 5.41666687e-01 5.31250000e-01 5.62500000e-01
      5.62500000e-01 5.62500000e-01 5.72916687e-01 7.70833373e-01
      9.27083373e-01 9.27083373e-01 9.16666687e-01 9.37500000e-01
      8.33333373e-01 6.04166687e-01 3.33333343e-01 1. 0. 0. 0. 0.
      7.06713833e-03 1.29564200e-02 0. 1.06007075e-02 0. 0.
      1.41342767e-02 0. 3.88692580e-02 5.88928163e-03 0. 1.06007075e-02
      0. 0. 6.47820979e-02 2.20259130e-01 7.89163783e-02 0.
      5.88928163e-03 2.26148427e-01 1.07184924e-01 0. 0. 0. 0.
      5.99528909e-01 0. 0. 0. 0. 3.41578349e-02 2.67373383e-01 0.
      1.41342767e-02 0. 1.41342767e-02 0. 1.08362786e-01 2.23792698e-02
      0. 1.17785635e-03 0. 0. 0. 0. 2.93286234e-01 1.17785635e-03 0. 0.
      0. 3.53356898e-02 0. 0. 0. 0. 1.76678449e-02 0. 0. 0. 0. 0.
      5.88928163e-02 0. 0. 0. 1.06007075e-02 0. 0. 0. 0. 9.01060104e-01
      0. 0. 0. 0. 1.29564200e-02 0. 0. 2.53239125e-01 0. 0. 0.
      1.64899882e-02 0. 0. 7.06713796e-02 0. 0. 0. 0. 0. 1.91990584e-01
      0. 1.17785635e-03 0. 0. 1.41342767e-02 0. 6.83156699e-02 0. 0. 0.
      0. 0. 0. 4.64075416e-01 0. 0. 0. 1.60188466e-01 0. 0. 0. 0. 0.
      1.95524156e-01 0. 0. 0. 0. 0. 2.12014150e-02 0. 0. 0. 0. 0. 0. 0.
      0. 0. 0. 0. 0. 0. 1.41342767e-02 0. 0. 0. 0. 0. 0. 0. 0. 0. 0. 0.
      0. 0. 0. 0. 0. 0. 0. 0. 0. 0. 0. 0. 0. 8.48056599e-02 0. 0. 0. 0.
      0. 0. 0. 1.53121324e-02 0. 0. 0. 0. 0. 0.</_>
    <_>
      0. 3.61111104e-01 1. 1. 4.72222239e-01 1.94444448e-01
      3.05555552e-01 6.38888896e-01 5.00000000e-01 3.33333343e-01
      3.61111104e-01 3.61111104e-01 5.83333313e-01 6.66666687e-01
      6.94444478e-01 6.11111104e-01 5.83333313e-01 6.11111104e-01
      9.16666687e-01 9.72222209e-01 1. 1.94444448e-01 1.38888896e-01
      1.38888896e-01 1.38888896e-01 3.33333343e-01 5.27777791e-01
      5.00000000e-01 4.16666657e-01 3.33333343e-01 3.05555552e-01
      8.33333358e-02 0. 0. 8.33333358e-02 3.33333343e-01 8.33333313e-01
      8.88888896e-01 8.88888896e-01 8.33333313e-01 7.50000000e-01
      7.22222209e-01 8.05555582e-01 9.72222209e-01 9.72222209e-01 1.
      2.22222224e-01 1.66666672e-01 1.66666672e-01 1.38888896e-01
      3.61111104e-01 6.66666687e-01 6.66666687e-01 5.83333313e-01
      5.27777791e-01 4.16666657e-01 2.22222224e-01 1.94444448e-01
      3.33333343e-01 4.16666657e-01 6.66666687e-01 1. 1. 1.
      8.33333313e-01 3.61111104e-01 3.61111104e-01 2.50000000e-01
      3.05555552e-01 5.00000000e-01 5.27777791e-01 5.27777791e-01
      5.27777791e-01 5.00000000e-01 3.88888896e-01 3.05555552e-01
      3.61111104e-01 4.72222239e-01 6.38888896e-01 1. 1. 1.
      8.88888896e-01 7.77777791e-01 6.94444478e-01 6.11111104e-01
      5.27777791e-01 5.00000000e-01 5.00000000e-01 5.83333313e-01
      5.27777791e-01 2.22222224e-01 1.38888896e-01 1.11111112e-01
      1.38888896e-01 6.38888896e-01 8.05555582e-01 9.16666687e-01
      8.88888896e-01 8.61111104e-01 4.72222239e-01 1.38888896e-01
      1.11111112e-01 8.33333358e-02 5.55555560e-02 3.33333343e-01
      3.88888896e-01 4.16666657e-01 4.72222239e-01 4.72222239e-01
      1.94444448e-01 1.94444448e-01 2.50000000e-01 3.61111104e-01
      8.05555582e-01 9.72222209e-01 9.72222209e-01 9.72222209e-01
      7.50000000e-01 6.38888896e-01 5.83333313e-01 4.16666657e-01
      3.61111104e-01 3.88888896e-01 4.44444448e-01 3.88888896e-01
      4.16666657e-01 3.88888896e-01 3.05555552e-01 3.61111104e-01
      4.44444448e-01 5.55555582e-01 8.33333313e-01 9.72222209e-01
      8.05555582e-01 0. 7.60683775e-01 8.71794939e-01 7.09401727e-01
      5.38461566e-01 4.61538494e-01 4.61538494e-01 4.52991486e-01
      5.04273534e-01 5.38461566e-01 6.49572670e-01 6.58119678e-01
      6.41025662e-01 6.15384638e-01 5.21367550e-01 4.18803453e-01
      4.01709408e-01 4.18803453e-01 3.93162400e-01 3.93162400e-01
      5.12820542e-01 5.89743614e-01 6.06837630e-01 6.66666687e-01
      6.32478654e-01 5.64102590e-01 5.47008574e-01 5.21367550e-01
      4.87179518e-01 5.04273534e-01 5.64102590e-01 6.66666687e-01
      7.35042751e-01 8.80341947e-01 9.40171003e-01 1. 7.17948735e-01
      1.39275759e-01 5.29247895e-02 7.14948922e-02 7.24233985e-02
      8.26369524e-02 9.00649950e-02 1.13277622e-01 1.28133699e-01
      2.23769724e-01 2.90622085e-01 5.98885775e-01 1. 8.14298987e-01
      4.86536682e-01 1.94057569e-01 6.59238622e-02 2.41411328e-02
      7.42804073e-03 1.85701018e-03 3.71402036e-03 9.28505091e-04
      9.28505091e-04 0. 0. 0. 0. 0. 0. 0. 0. 0. 0. 0. 0. 0. 0. 0. 0. 0.
      0. 0. 0. 0. 0. 0. 0. 0. 0. 0. 0. 0. 0. 0. 0. 0. 0. 0. 0. 0. 0. 0.
      0. 0. 0. 0. 0. 0. 0. 0. 0. 0. 0. 0. 0. 0. 0. 0. 0. 0. 0. 0. 0. 0.
      0. 0. 0. 0. 0. 0. 0. 0. 0. 0. 0. 0. 0. 0. 0. 0. 0. 0. 0. 0. 0. 0.
      0. 0. 0. 0. 0. 0. 0. 0. 0. 0. 0. 0. 0. 0. 0. 0. 0. 0. 0. 0. 0. 0.
      0. 0. 0. 0. 0. 0. 0. 0. 0. 0. 0. 0. 0. 0. 0. 0. 0. 0. 0.
      9.28505091e-04 0. 0. 0. 0. 0. 0. 0. 0. 0. 1.85701018e-03 0. 0.
      1.85701018e-03 0. 0. 0. 0. 9.28505091e-04 0. 1.85701018e-03 0. 0.
      9.28505091e-04 6.49953540e-03 0. 5.57103055e-03 4.64252569e-03
      2.78551527e-03 8.35654605e-03 7.42804073e-03 1.48560815e-02
      2.78551527e-03 2.13556178e-02</_>
    <_>
      1. 1. 1. 1. 1. 1. 1. 1. 1. 1. 1. 8.33333358e-02 2.77777780e-02
      2.77777780e-02 0. 1.38888896e-01 8.05555582e-01 6.11111104e-01
      4.44444448e-01 3.61111104e-01 2.77777791e-01 3.33333343e-01
      4.16666657e-01 4.44444448e-01 2.50000000e-01 2.50000000e-01
      5.00000000e-01 5.83333313e-01 6.94444478e-01 8.33333313e-01
      8.33333313e-01 3.61111104e-01 2.77777791e-01 2.22222224e-01
      5.27777791e-01 5.55555582e-01 5.00000000e-01 4.16666657e-01
      3.88888896e-01 2.50000000e-01 2.22222224e-01 3.05555552e-01
      4.44444448e-01 6.94444478e-01 7.50000000e-01 7.77777791e-01
      7.50000000e-01 7.50000000e-01 8.05555582e-01 8.61111104e-01
      8.61111104e-01 6.66666687e-01 5.55555582e-01 4.72222239e-01
      3.88888896e-01 4.16666657e-01 4.44444448e-01 4.16666657e-01
      3.61111104e-01 3.33333343e-01 4.16666657e-01 5.27777791e-01
      6.66666687e-01 8.61111104e-01 8.61111104e-01 7.50000000e-01
      6.11111104e-01 4.72222239e-01 4.16666657e-01 4.72222239e-01
      5.00000000e-01 5.27777791e-01 4.44444448e-01 4.16666657e-01
      4.16666657e-01 5.00000000e-01 6.11111104e-01 8.61111104e-01
      8.61111104e-01 6.94444478e-01 5.27777791e-01 4.44444448e-01
      4.16666657e-01 4.44444448e-01 4.72222239e-01 4.72222239e-01
      5.00000000e-01 4.72222239e-01 4.44444448e-01 5.83333313e-01
      7.22222209e-01 8.61111104e-01 8.61111104e-01 3.33333343e-01
      1.66666672e-01 8.33333358e-02 5.55555560e-02 4.44444448e-01
      4.72222239e-01 5.55555582e-01 5.27777791e-01 5.00000000e-01
      2.50000000e-01 3.05555552e-01 3.61111104e-01 8.61111104e-01
      8.61111104e-01 8.61111104e-01 3.61111104e-01 3.05555552e-01
      2.50000000e-01 6.38888896e-01 6.11111104e-01 6.66666687e-01
      6.38888896e-01 5.83333313e-01 2.22222224e-01 1.94444448e-01
      3.05555552e-01 6.94444478e-01 7.22222209e-01 3.88888896e-01 0.
      2.77777780e-02 5.55555560e-02 1.11111112e-01 3.05555552e-01
      8.05555582e-01 8.88888896e-01 9.44444478e-01 9.44444478e-01
      9.44444478e-01 9.44444478e-01 9.72222209e-01 9.72222209e-01
      9.44444478e-01 2.36842111e-01 2.10526317e-01 2.01754391e-01
      8.24561417e-01 9.21052635e-01 9.03508782e-01 9.21052635e-01
      7.36842096e-01 6.57894731e-01 5.43859661e-01 5.26315808e-01
      6.57894731e-01 7.19298244e-01 7.98245609e-01 8.24561417e-01
      7.89473712e-01 7.10526347e-01 6.40350878e-01 6.57894731e-01
      6.84210539e-01 7.36842096e-01 7.45614052e-01 7.01754391e-01
      6.84210539e-01 7.01754391e-01 6.66666687e-01 5.00000000e-01
      5.08771956e-01 5.52631557e-01 6.75438583e-01 1. 9.56140339e-01
      9.73684192e-01 8.33333313e-01 1.49122804e-01 9.64912325e-02
      2.61780107e-03 0. 0. 0. 0. 2.61780107e-03 0. 0. 3.92670184e-03 0.
      0. 2.61780107e-03 0. 1.04712043e-02 7.85340369e-03 2.48691104e-02
      4.31937166e-02 1.09947644e-01 2.34293193e-01 6.20418847e-01
      8.99214685e-01 9.35863912e-01 1. 6.28272235e-01 4.25392687e-01
      2.60471195e-01 3.52094233e-01 1.79319367e-01 1.37434557e-01
      1.02094240e-01 1.03403144e-01 6.15183264e-02 5.62827215e-02
      4.45026197e-02 5.89005239e-02 4.71204184e-02 1.83246080e-02
      5.23560215e-03 1.30890054e-03 1.17801046e-02 3.92670184e-03
      1.30890054e-03 3.92670184e-03 3.92670184e-03 0. 0. 0. 0. 0. 0. 0.
      0. 0. 0. 0. 0. 0. 0. 0. 0. 0. 0. 0. 0. 0. 0. 0. 0. 0. 0. 0. 0. 0.
      0. 0. 0. 0. 0. 0. 0. 0. 0. 0. 0. 0. 0. 0. 0. 0. 0. 0. 0. 0. 0. 0.
      0. 0. 0. 0. 0. 0. 0. 0. 0. 0. 0. 0. 0. 0. 0. 0. 0. 0. 0. 0. 0. 0.
      0. 0. 0. 0. 0. 0. 0. 0. 0. 0. 0. 0. 0. 0. 0. 0. 0. 0. 0. 0. 0. 0.
      0. 0. 0. 0. 0. 0. 0. 0. 0. 0. 0. 0. 0. 0. 0. 0. 0. 0. 0. 0. 0. 0.
      0. 0. 0. 0. 0. 0. 0. 0. 0. 0. 0. 0. 3.92670184e-03 0. 0. 0. 0. 0.
      0.</_>
    <_>
      6.11111104e-01 6.38888896e-01 6.66666687e-01 6.66666687e-01
      6.38888896e-01 6.66666687e-01 6.66666687e-01 6.66666687e-01
      6.38888896e-01 6.38888896e-01 5.00000000e-01 2.22222224e-01
      9.72222209e-01 9.72222209e-01 9.72222209e-01 6.38888896e-01
      4.72222239e-01 6.66666687e-01 8.61111104e-01 4.16666657e-01
      4.16666657e-01 6.11111104e-01 7.22222209e-01 7.50000000e-01
      8.33333313e-01 6.66666687e-01 6.66666687e-01 9.72222209e-01
      9.72222209e-01 9.72222209e-01 3.05555552e-01 2.50000000e-01
      2.50000000e-01 5.83333313e-01 7.77777791e-01 7.77777791e-01
      7.50000000e-01 6.38888896e-01 5.55555582e-01 5.83333313e-01
      1.94444448e-01 2.22222224e-01 2.50000000e-01 8.88888896e-01
      9.16666687e-01 9.44444478e-01 9.44444478e-01 8.88888896e-01
      8.88888896e-01 9.72222209e-01 9.72222209e-01 9.72222209e-01
      9.44444478e-01 7.77777791e-01 6.94444478e-01 6.38888896e-01
      6.11111104e-01 6.66666687e-01 6.66666687e-01 6.66666687e-01
      6.38888896e-01 6.38888896e-01 5.27777791e-01 6.11111104e-01
      6.66666687e-01 8.61111104e-01 9.72222209e-01 9.72222209e-01
      9.72222209e-01 7.77777791e-01 6.94444478e-01 6.38888896e-01
      6.11111104e-01 6.66666687e-01 6.66666687e-01 6.66666687e-01
      6.66666687e-01 6.66666687e-01 5.55555582e-01 5.83333313e-01
      6.66666687e-01 9.72222209e-01 1. 1. 9.44444478e-01 6.66666687e-01
      5.55555582e-01 5.00000000e-01 5.83333313e-01 6.66666687e-01
      6.94444478e-01 6.66666687e-01 6.94444478e-01 6.94444478e-01
      5.55555582e-01 6.66666687e-01 7.22222209e-01 1. 9.72222209e-01
      9.16666687e-01 7.77777791e-01 6.66666687e-01 6.38888896e-01
      5.83333313e-01 4.72222239e-01 5.27777791e-01 6.11111104e-01
      6.94444478e-01 6.66666687e-01 2.77777791e-01 2.50000000e-01
      3.05555552e-01 9.16666687e-01 9.72222209e-01 1. 1. 1.
      4.72222239e-01 3.61111104e-01 3.33333343e-01 7.77777791e-01
      8.33333313e-01 8.05555582e-01 7.77777791e-01 8.33333313e-01
      7.77777791e-01 3.33333343e-01 3.61111104e-01 4.44444448e-01 1. 1.
      9.44444478e-01 0. 0. 0. 4.16666657e-01 8.03278625e-01
      8.77049148e-01 9.18032765e-01 9.99999940e-01 9.75409806e-01
      7.21311450e-01 6.22950792e-01 6.22950792e-01 7.37704873e-01
      7.54098296e-01 7.21311450e-01 7.78688490e-01 7.78688490e-01
      7.86885202e-01 8.11475337e-01 8.03278625e-01 7.54098296e-01
      6.96721256e-01 6.80327833e-01 7.54098296e-01 7.78688490e-01
      7.70491779e-01 7.78688490e-01 7.29508162e-01 7.13114738e-01
      7.13114738e-01 6.39344215e-01 4.59016383e-01 4.67213094e-01
      5.57377040e-01 9.42622900e-01 9.83606517e-01 8.93442571e-01
      8.85245860e-01 8.85245860e-01 3.52458984e-01 1.67597756e-02
      1.81564242e-02 6.98324014e-03 1.39664800e-03 6.98324014e-03
      1.39664803e-02 5.58659201e-03 2.79329601e-03 8.37988779e-03
      4.18994389e-03 6.98324014e-03 6.98324014e-03 4.18994389e-03
      1.81564242e-02 2.09497195e-02 4.60893847e-02 9.91620049e-02
      1.82960883e-01 3.67318422e-01 6.31284893e-01 8.39385450e-01 1.
      8.98044646e-01 6.07541859e-01 3.61731827e-01 2.66759783e-01
      2.72346348e-01 1.67597756e-01 1.13128491e-01 1.56424582e-01
      8.51955265e-02 7.82122910e-02 7.40223452e-02 2.79329605e-02
      9.77653638e-02 1.01955302e-01 3.07262558e-02 1.11731840e-02
      2.23463681e-02 5.58659201e-03 5.58659201e-03 5.58659201e-03
      1.39664800e-03 1.39664803e-02 1.39664800e-03 2.79329601e-03
      4.18994389e-03 0. 1.39664800e-03 0. 0. 0. 0. 0. 0. 0. 0. 0. 0. 0.
      0. 0. 0. 0. 0. 0. 0. 0. 0. 0. 0. 0. 0. 0. 0. 0. 0. 0. 0. 0. 0. 0.
      0. 0. 0. 0. 0. 0. 0. 0. 0. 0. 0. 0. 0. 0. 0. 0. 0. 0. 0. 0. 0. 0.
      0. 0. 0. 0. 0. 0. 0. 0. 0. 0. 0. 0. 0. 0. 0. 0. 0. 0. 0. 0. 0. 0.
      0. 0. 0. 0. 0. 0. 0. 0. 0. 0. 0. 0. 0. 0. 2.79329601e-03 0. 0. 0.
      0. 0. 0. 0. 0. 0. 0. 0. 0. 0. 0. 0. 2.79329601e-03 0. 0. 0. 0. 0.
      0. 0. 0. 4.18994389e-03 0. 0. 0. 0. 0. 0. 0. 6.98324014e-03
      1.11731840e-02 1.25698317e-02 4.18994389e-03 2.65363120e-02
      3.35195512e-02 9.77653638e-03</_>
    <_>
      0. 3.44827585e-02 2.75862068e-01 5.17241359e-01 5.86206913e-01
      5.51724136e-01 7.58620679e-01 5.17241359e-01 3.10344815e-01
      3.44827592e-01 8.62068951e-01 8.27586174e-01 3.44827592e-01
      2.41379306e-01 2.06896544e-01 3.44827585e-02 0. 0. 1.03448272e-01
      9.31034505e-01 1. 1. 3.79310340e-01 3.44827592e-01 3.79310340e-01
      3.79310340e-01 3.79310340e-01 4.48275864e-01 4.48275864e-01
      4.48275864e-01 3.79310340e-01 1.72413796e-01 0. 0. 0. 0.
      1.03448272e-01 1.72413796e-01 1.72413796e-01 6.89655170e-02 0. 0.
      0. 1.03448272e-01 1.37931034e-01 1.37931034e-01 1.37931034e-01
      1.37931034e-01 1.03448272e-01 3.10344815e-01 6.55172408e-01
      7.93103456e-01 5.17241359e-01 4.82758611e-01 3.79310340e-01
      2.41379306e-01 1.03448272e-01 0. 0. 0. 0. 1.37931034e-01
      1.37931034e-01 1.37931034e-01 1.37931034e-01 1.03448272e-01
      3.10344815e-01 5.51724136e-01 6.89655185e-01 5.51724136e-01
      4.48275864e-01 3.79310340e-01 2.75862068e-01 2.06896544e-01 0. 0.
      0. 0. 9.31034505e-01 9.65517223e-01 9.31034505e-01 2.41379306e-01
      2.06896544e-01 2.06896544e-01 2.41379306e-01 2.41379306e-01
      2.06896544e-01 2.75862068e-01 3.10344815e-01 3.79310340e-01
      3.10344815e-01 1.37931034e-01 0. 0. 0. 0. 5.51724136e-01
      7.24137902e-01 6.55172408e-01 2.75862068e-01 3.44827592e-01
      2.75862068e-01 2.75862068e-01 3.10344815e-01 3.79310340e-01
      4.13793087e-01 6.20689631e-01 5.86206913e-01 3.79310340e-01 0. 0.
      0. 0. 6.55172408e-01 6.89655185e-01 7.58620679e-01 4.48275864e-01
      3.44827592e-01 3.44827592e-01 3.79310340e-01 3.44827592e-01
      3.79310340e-01 4.48275864e-01 6.89655185e-01 5.86206913e-01
      4.13793087e-01 0. 0. 0. 0. 0. 0. 0. 0. 3.44827585e-02
      6.89655170e-02 1.21951215e-02 3.65853645e-02 4.87804860e-02
      4.87804860e-02 0. 6.09756075e-02 2.07317069e-01 7.43902385e-01
      9.99999940e-01 8.41463387e-01 6.95121944e-01 4.26829249e-01
      4.39024389e-01 3.41463387e-01 3.29268277e-01 3.29268277e-01
      4.51219499e-01 4.87804860e-01 5.85365832e-01 6.70731664e-01
      6.21951222e-01 4.99999970e-01 4.63414609e-01 3.17073166e-01
      3.04878026e-01 3.65853637e-01 3.90243888e-01 3.90243888e-01
      4.02438998e-01 3.78048778e-01 4.39024389e-01 4.39024389e-01
      5.12195110e-01 4.02438998e-01 3.29268277e-01 1.34146333e-01
      4.51504998e-02 0. 0. 1.67224079e-03 0. 1.00334445e-02
      5.01672225e-03 0. 2.67558526e-02 3.34448158e-03 1.67224079e-03
      1.50501672e-02 0. 1.00334445e-02 1.67224079e-03 1.67224079e-03
      1.67224079e-03 0. 0. 0. 1.17056854e-02 0. 0. 0. 1.50501672e-02
      1.67224079e-03 1.67224079e-03 0. 0. 0. 3.67892981e-02 0. 0. 0. 0.
      1.67224079e-03 1.83946490e-02 0. 0. 0. 0. 0. 1.00334445e-02 0. 0.
      0. 0. 0. 1.67224079e-03 0. 3.01003344e-02 1.67224079e-03
      3.34448158e-03 0. 0. 1.00334445e-02 5.01672225e-03 0. 0. 0.
      1.00334445e-02 0. 0. 3.34448158e-03 0. 0. 2.17391308e-02 0. 0. 0.
      3.34448158e-03 1.67224079e-03 0. 6.68896316e-03 5.01672225e-03
      1.17056854e-02 0. 0. 1.67224079e-03 1.67224079e-03 1.17056854e-02
      0. 0. 3.51170562e-02 3.34448158e-03 6.68896316e-03 0.
      1.33779263e-02 0. 0. 3.51170562e-02 0. 3.34448158e-03
      3.34448158e-03 1.67224079e-03 1.83946490e-02 2.00668890e-02
      1.67224079e-03 1.17056854e-02 5.01672225e-03 8.36120360e-03
      6.02006689e-02 2.34113708e-02 6.68896288e-02 3.84615399e-02
      1.10367894e-01 1.82274252e-01 2.09030092e-01 3.91304344e-01
      7.19063520e-01 1. 9.53177273e-01 8.84615362e-01 6.03678942e-01
      4.06354517e-01 2.00668901e-01 3.19397986e-01 1.60535112e-01
      1.35451511e-01 1.35451511e-01 1.38795987e-01 5.68561852e-02
      8.69565234e-02 6.68896288e-02 6.18729107e-02 1.13712370e-01
      7.85953179e-02 4.51504998e-02 5.68561852e-02 3.67892981e-02
      4.51504998e-02 1.83946490e-02 2.67558526e-02 3.84615399e-02
      1.67224072e-02 5.01672225e-03 1.33779263e-02 8.36120360e-03
      1.83946490e-02 0. 1.83946490e-02 1.33779263e-02 5.01672225e-03
      3.34448158e-03 3.34448158e-03 1.67224072e-02 6.68896316e-03 0. 0.
      0. 0. 0. 0. 0. 1.67224079e-03 0. 1.33779263e-02 5.01672225e-03
      3.34448158e-03 1.67224079e-03 1.67224079e-03 0. 1.67224079e-03
      1.67224079e-03 0. 1.50501672e-02 0. 0. 0. 0. 8.36120360e-03 0.
      1.67224079e-03 1.33779263e-02 0. 0. 0. 0. 0. 0.</_>
    <_>
      0. 0. 6.66666701e-02 3.33333351e-02 0. 0. 0. 1.00000009e-01
      2.00000018e-01 5.00000000e-01 5.33333361e-01 6.33333385e-01
      6.00000024e-01 4.66666698e-01 3.33333343e-01 4.33333367e-01
      8.00000072e-01 8.00000072e-01 3.33333343e-01 2.66666681e-01
      1.33333340e-01 0. 0. 0. 0. 6.33333385e-01 9.66666698e-01 1.
      9.66666698e-01 3.00000012e-01 2.33333349e-01 2.33333349e-01
      3.33333343e-01 4.66666698e-01 4.66666698e-01 4.00000036e-01
      2.66666681e-01 1.66666672e-01 1.00000009e-01 0. 0. 0. 0. 0.
      6.66666701e-02 1.00000009e-01 6.66666701e-02 0. 0. 0. 0.
      6.66666701e-02 2.00000018e-01 3.00000012e-01 3.66666675e-01
      4.33333367e-01 4.33333367e-01 4.33333367e-01 3.66666675e-01
      4.33333367e-01 5.66666722e-01 9.66666698e-01 9.66666698e-01
      9.00000036e-01 2.33333349e-01 1.00000009e-01 0. 0. 0.
      1.00000009e-01 1.33333340e-01 1.33333340e-01 1.33333340e-01
      1.33333340e-01 1.33333340e-01 7.33333349e-01 9.66666698e-01
      9.66666698e-01 7.66666710e-01 1.33333340e-01 1.00000009e-01
      1.33333340e-01 1.33333340e-01 1.00000009e-01 0. 0. 0. 0.
      2.66666681e-01 3.33333343e-01 4.33333367e-01 4.66666698e-01
      4.00000036e-01 4.33333367e-01 4.00000036e-01 4.00000036e-01
      4.66666698e-01 5.33333361e-01 6.00000024e-01 6.66666687e-01
      5.33333361e-01 4.00000036e-01 3.33333351e-02 0. 0. 0.
      6.66666701e-02 2.00000018e-01 2.00000018e-01 1.00000009e-01
      1.00000009e-01 1.00000009e-01 1.00000009e-01 6.00000024e-01
      7.33333349e-01 8.66666734e-01 7.00000048e-01 5.00000000e-01
      3.33333343e-01 2.33333349e-01 1.00000009e-01 0. 0. 0. 0. 0. 0. 0.
      0. 0. 4.00000036e-01 9.66666698e-01 9.66666698e-01 9.33333397e-01
      0. 0. 1.25000000e-01 1.07142866e-01 7.14285746e-02 2.14285731e-01
      4.46428597e-01 7.32142866e-01 9.10714328e-01 9.82142925e-01 1.
      8.39285731e-01 7.50000060e-01 7.32142866e-01 7.32142866e-01
      6.07142866e-01 5.71428597e-01 5.89285731e-01 5.53571463e-01
      6.25000000e-01 6.78571463e-01 8.75000060e-01 9.28571463e-01
      8.03571463e-01 7.32142866e-01 5.53571463e-01 5.53571463e-01
      6.42857194e-01 6.25000000e-01 6.96428597e-01 6.60714328e-01
      6.25000000e-01 5.71428597e-01 4.46428597e-01 3.92857164e-01
      2.50000000e-01 1.96428582e-01 1.42857149e-01 6.74662692e-03 0. 0.
      0. 0. 0. 0. 0. 0. 0. 0. 0. 0. 0. 0. 0. 0. 0. 0. 0. 2.24887556e-03
      0. 0. 0. 0. 0. 0. 0. 0. 0. 1.49925041e-03 0. 0. 0. 0. 0. 0. 0. 0.
      0. 0. 0. 0. 0. 0. 0. 0. 0. 0. 0. 7.49625207e-04 0. 0. 0. 0. 0. 0.
      0. 0. 0. 0. 0. 0. 0. 0. 0. 0. 0. 0. 0. 0. 0. 0. 0. 0.
      5.24737639e-03 0. 0. 0. 0. 7.49625207e-04 0. 0. 3.74812610e-03 0.
      0. 0. 0. 0. 0. 2.99850083e-03 0. 0. 0. 0. 0. 1.42428791e-02 0.
      7.49625207e-04 0. 0. 1.12443781e-02 0. 2.84857582e-02
      5.24737639e-03 8.24587699e-03 4.04797606e-02 2.32383814e-02
      1.34932538e-02 1.02698654e-01 1.32683665e-01 3.14092964e-01
      6.80659711e-01 3.06596696e-01 1. 2.34632686e-01 4.81259376e-01
      6.97151423e-02 5.09745143e-02 2.84857582e-02 4.34782617e-02 0.
      2.84857582e-02 0. 7.49625207e-04 9.74512752e-03 7.49625219e-03 0.
      0. 0. 7.49625207e-04 0. 7.49625207e-04 7.49625207e-04 0. 0. 0. 0.
      0. 0. 7.49625207e-04 0. 0. 0. 0. 0. 0. 0. 0. 0. 0. 0. 0. 0. 0. 0.
      0. 0. 0. 0. 0. 0. 0. 0. 0. 5.99700166e-03 0. 0. 0. 0. 0. 0. 0. 0.
      0. 0. 0. 0. 0. 0.</_>
    <_>
      8.27586174e-01 8.27586174e-01 8.27586174e-01 7.93103456e-01
      8.27586174e-01 8.27586174e-01 8.27586174e-01 8.27586174e-01
      8.27586174e-01 8.27586174e-01 8.27586174e-01 8.27586174e-01
      8.27586174e-01 8.62068951e-01 3.79310340e-01 6.89655170e-02
      3.44827585e-02 3.44827585e-02 3.44827585e-02 3.44827585e-02
      3.44827585e-02 3.44827585e-02 3.44827585e-02 8.96551728e-01 1.
      1.72413796e-01 3.44827592e-01 7.24137902e-01 8.62068951e-01
      8.62068951e-01 7.93103456e-01 7.58620679e-01 8.27586174e-01
      7.93103456e-01 5.51724136e-01 4.48275864e-01 2.41379306e-01
      3.10344815e-01 8.96551728e-01 1. 9.65517223e-01 6.89655185e-01
      6.89655185e-01 6.55172408e-01 6.20689631e-01 5.86206913e-01
      6.55172408e-01 5.86206913e-01 3.79310340e-01 5.17241359e-01
      8.27586174e-01 7.93103456e-01 6.55172408e-01 3.10344815e-01
      7.24137902e-01 1. 1. 1. 5.17241359e-01 5.51724136e-01
      5.86206913e-01 8.62068951e-01 7.58620679e-01 6.89655185e-01
      5.86206913e-01 3.10344815e-01 3.10344815e-01 8.27586174e-01
      9.31034505e-01 8.96551728e-01 6.55172408e-01 5.86206913e-01
      6.55172408e-01 7.24137902e-01 8.27586174e-01 7.93103456e-01
      6.20689631e-01 2.75862068e-01 2.75862068e-01 8.62068951e-01
      9.31034505e-01 9.31034505e-01 3.79310340e-01 3.44827592e-01
      3.79310340e-01 3.79310340e-01 8.96551728e-01 8.62068951e-01
      7.58620679e-01 2.06896544e-01 1.72413796e-01 4.48275864e-01
      4.82758611e-01 5.17241359e-01 5.51724136e-01 4.82758611e-01
      6.89655185e-01 8.96551728e-01 8.96551728e-01 7.93103456e-01
      2.06896544e-01 2.06896544e-01 4.48275864e-01 6.20689631e-01
      6.89655185e-01 7.58620679e-01 5.86206913e-01 6.20689631e-01
      6.55172408e-01 8.62068951e-01 8.27586174e-01 5.86206913e-01
      1.37931034e-01 8.96551728e-01 9.65517223e-01 2.06896544e-01 0. 0.
      0. 0. 0. 0. 0. 0. 1.72413796e-01 4.82758611e-01 4.48275864e-01
      4.82758611e-01 5.17241359e-01 4.82758611e-01 4.13793087e-01
      3.10344815e-01 2.75862068e-01 2.75862068e-01 3.10344815e-01
      5.51724136e-01 1. 8.24561417e-01 5.00000000e-01 2.63157904e-01
      5.26315808e-01 9.12280679e-01 6.49122834e-01 4.91228074e-01
      2.63157904e-01 4.29824561e-01 6.84210539e-01 7.28070199e-01
      7.19298244e-01 6.49122834e-01 5.26315808e-01 5.17543852e-01
      6.05263174e-01 6.66666687e-01 7.10526347e-01 8.07017565e-01
      7.71929860e-01 6.84210539e-01 5.87719321e-01 5.78947365e-01
      4.38596487e-01 5.35087705e-01 5.43859661e-01 4.64912295e-01
      3.50877196e-01 1.75438598e-01 2.28070170e-01 6.31578922e-01
      6.57894731e-01 3.33333343e-01 8.77192989e-03 0. 9.71153855e-01
      9.61538497e-03 2.88461559e-02 8.65384638e-02 2.88461559e-02
      2.45192319e-01 3.99038464e-01 2.88461559e-02 2.83653855e-01
      1.63461551e-01 1.34615391e-01 4.71153855e-01 2.35576928e-01
      8.12500060e-01 3.17307711e-01 3.70192319e-01 7.59615421e-01
      2.40384623e-01 6.25000000e-02 2.74038464e-01 2.83653855e-01
      3.99038464e-01 7.69230798e-02 6.25000000e-02 1.63461551e-01
      1.82692319e-01 5.28846160e-02 0. 0. 4.80769249e-03 3.84615391e-01
      0. 9.61538497e-03 0. 2.40384620e-02 1.63461551e-01 1.34615391e-01
      0. 3.36538479e-02 1.92307699e-02 3.36538479e-02 0. 8.65384638e-02
      7.21153840e-02 0. 0. 4.80769249e-03 0. 2.40384620e-02
      4.80769249e-03 1.44230768e-01 1.92307699e-02 1.44230779e-02 0. 0.
      3.36538479e-02 9.61538497e-03 4.80769249e-03 4.80769249e-03 0.
      9.61538479e-02 0. 4.80769249e-03 1.44230779e-02 0. 0.
      7.21153840e-02 0. 9.61538497e-03 4.80769249e-03 8.65384638e-02
      1.44230779e-02 0. 2.40384620e-02 4.80769249e-03 4.56730783e-01 0.
      4.80769249e-03 0. 2.40384620e-02 2.11538464e-01 4.80769249e-03 0.
      1.87500000e-01 2.40384620e-02 3.84615399e-02 9.61538497e-03
      1.63461551e-01 2.88461559e-02 1.44230779e-02 2.88461536e-01
      2.40384620e-02 7.69230798e-02 5.28846160e-02 8.65384638e-02
      2.83653855e-01 3.89423102e-01 1.15384623e-01 3.31730783e-01
      3.84615391e-01 3.46153855e-01 7.88461566e-01 5.57692349e-01 1.
      4.37500030e-01 6.68269277e-01 5.00000000e-01 3.75000000e-01
      1.73076928e-01 3.41346174e-01 7.93269277e-01 3.02884638e-01
      1.63461551e-01 8.65384638e-02 2.69230783e-01 1.15384623e-01
      1.87500000e-01 3.36538479e-02 1.92307699e-02 4.32692319e-02
      5.09615421e-01 0. 8.17307755e-02 6.25000000e-02 1.92307696e-01
      2.64423072e-01 2.30769247e-01 2.88461559e-02 1.10576928e-01
      3.84615399e-02 7.69230798e-02 0. 2.16346160e-01 2.16346160e-01 0.
      4.32692319e-02 9.61538497e-03 4.80769249e-03 9.61538479e-02
      4.80769249e-03 4.51923102e-01 9.13461596e-02 1.44230779e-02
      4.80769249e-03 1.92307699e-02 1.05769232e-01 3.36538479e-02
      2.88461559e-02 4.80769249e-03 0. 7.69230798e-02 0. 0.
      3.84615399e-02 0. 2.40384620e-02 1.49038464e-01 4.80769249e-03
      9.61538497e-03 4.80769239e-02 9.13461596e-02 0. 4.80769249e-03
      5.28846160e-02 7.21153840e-02 2.69230783e-01 2.40384620e-02 0. 0.
      2.40384620e-02 2.16346160e-01 9.61538497e-03 0. 1.73076928e-01
      3.36538479e-02 1.44230779e-02 0. 1.39423087e-01 9.61538497e-03 0.</_>
    <_>
      0. 0. 2.77777780e-02 5.55555560e-02 0. 8.33333358e-02
      1.66666672e-01 3.88888896e-01 3.88888896e-01 1.11111112e-01
      2.77777780e-02 3.05555552e-01 5.00000000e-01 7.77777791e-01
      8.88888896e-01 8.88888896e-01 8.88888896e-01 9.16666687e-01
      8.05555582e-01 3.05555552e-01 1.66666672e-01 1.11111112e-01
      3.88888896e-01 5.55555582e-01 5.83333313e-01 5.83333313e-01
      5.83333313e-01 5.55555582e-01 5.27777791e-01 4.44444448e-01
      3.61111104e-01 3.05555552e-01 3.61111104e-01 6.94444478e-01
      7.77777791e-01 8.05555582e-01 8.33333313e-01 8.61111104e-01
      8.88888896e-01 8.88888896e-01 9.16666687e-01 9.16666687e-01
      9.16666687e-01 9.16666687e-01 9.16666687e-01 9.16666687e-01
      7.50000000e-01 6.94444478e-01 6.94444478e-01 7.50000000e-01
      7.77777791e-01 8.05555582e-01 8.33333313e-01 8.33333313e-01
      7.77777791e-01 7.50000000e-01 5.55555560e-02 0. 0. 1.66666672e-01
      8.88888896e-01 9.16666687e-01 9.16666687e-01 9.44444478e-01
      6.11111104e-01 2.50000000e-01 1.66666672e-01 2.22222224e-01
      3.88888896e-01 4.72222239e-01 6.11111104e-01 6.11111104e-01
      5.00000000e-01 4.72222239e-01 3.05555552e-01 2.50000000e-01
      3.88888896e-01 4.72222239e-01 8.61111104e-01 8.88888896e-01
      8.88888896e-01 9.16666687e-01 9.16666687e-01 3.61111104e-01
      2.77777791e-01 1.94444448e-01 2.22222224e-01 4.72222239e-01
      6.11111104e-01 6.94444478e-01 7.22222209e-01 7.22222209e-01
      5.55555582e-01 3.05555552e-01 3.33333343e-01 4.16666657e-01
      6.94444478e-01 1. 1. 8.88888896e-01 8.61111104e-01 7.22222209e-01
      5.00000000e-01 3.88888896e-01 3.88888896e-01 3.61111104e-01
      3.61111104e-01 3.33333343e-01 4.16666657e-01 4.16666657e-01
      3.88888896e-01 3.33333343e-01 3.33333343e-01 4.16666657e-01
      5.55555582e-01 7.77777791e-01 9.16666687e-01 9.44444478e-01
      9.44444478e-01 9.44444478e-01 7.22222209e-01 5.83333313e-01
      5.27777791e-01 3.88888896e-01 3.88888896e-01 4.16666657e-01
      3.61111104e-01 3.33333343e-01 3.61111104e-01 3.33333343e-01
      2.22222224e-01 2.77777791e-01 3.33333343e-01 3.61111104e-01
      8.33333358e-02 0. 1.99999996e-02 2.99999993e-02 1.89999998e-01
      4.89999980e-01 5.79999983e-01 6.29999995e-01 5.99999964e-01
      5.60000002e-01 6.10000014e-01 6.99999988e-01 7.59999990e-01
      8.19999993e-01 8.89999986e-01 9.19999957e-01 9.69999969e-01 1.
      9.49999988e-01 8.59999955e-01 7.89999962e-01 7.69999981e-01
      8.19999993e-01 9.19999957e-01 9.49999988e-01 9.39999998e-01
      9.59999979e-01 9.79999959e-01 9.69999969e-01 9.49999988e-01
      9.09999967e-01 8.49999964e-01 7.89999962e-01 6.69999957e-01
      5.60000002e-01 5.79999983e-01 5.89999974e-01 5.29999971e-01
      3.57894711e-02 0. 3.15789459e-03 1.47368414e-02 4.21052612e-03
      3.57894711e-02 2.31578946e-02 5.26315765e-03 3.89473662e-02
      1.99999996e-02 3.05263139e-02 1.17894731e-01 8.84210467e-02
      2.12631568e-01 2.36842096e-01 5.07368386e-01 6.88421011e-01
      9.99999940e-01 9.22105193e-01 5.38947344e-01 2.11578935e-01
      1.14736840e-01 5.26315756e-02 3.78947333e-02 2.42105257e-02
      1.99999996e-02 1.26315784e-02 0. 0. 0. 3.68421040e-02 0. 0. 0.
      7.36842072e-03 1.15789473e-02 1.26315784e-02 2.10526306e-03
      3.15789459e-03 0. 3.15789459e-03 0. 2.10526306e-03 5.26315765e-03
      0. 1.05263153e-03 1.05263153e-03 0. 0. 0. 2.10526306e-03
      1.05263153e-03 0. 0. 0. 1.05263153e-03 0. 0. 0. 0. 5.26315765e-03
      0. 0. 0. 0. 0. 3.15789459e-03 0. 0. 0. 0. 0. 0. 0. 0.
      1.05263153e-03 0. 0. 0. 0. 1.05263153e-03 0. 0. 2.10526306e-03 0.
      0. 0. 0. 0. 0. 0. 0. 0. 0. 0. 0. 5.26315765e-03 0. 0. 0. 0.
      1.05263153e-03 0. 3.15789459e-03 0. 0. 0. 0. 0. 2.10526306e-03
      6.31578919e-03 0. 0. 0. 0. 1.05263153e-03 0. 0. 0. 0.
      9.47368331e-03 0. 0. 0. 1.05263153e-03 1.05263153e-03
      3.15789459e-03 0. 0. 0. 0. 0. 1.05263153e-03 0. 0. 0. 0. 0. 0. 0.
      1.05263153e-03 0. 0. 0. 0. 0. 0. 0. 0. 0. 0. 0. 0. 0. 0. 0.
      1.05263153e-03 0. 0. 0. 0. 0. 0. 0. 0. 8.42105225e-03 0. 0. 0. 0.
      2.10526306e-03 0. 0. 1.05263153e-03 0. 0. 0. 4.21052612e-03 0. 0.</_>
    <_>
      0. 0. 0. 0. 0. 0. 0. 0. 0. 0. 0. 0. 5.00000000e-01 9.72222209e-01
      9.72222209e-01 7.50000000e-01 6.11111104e-01 4.72222239e-01
      4.44444448e-01 3.88888896e-01 5.27777791e-01 6.38888896e-01
      5.55555582e-01 3.05555552e-01 3.88888896e-01 7.22222209e-01
      7.50000000e-01 8.33333313e-01 1. 1. 1. 2.77777791e-01
      2.50000000e-01 2.50000000e-01 4.16666657e-01 7.22222209e-01
      7.22222209e-01 7.22222209e-01 6.66666687e-01 6.38888896e-01
      5.83333313e-01 4.72222239e-01 4.72222239e-01 5.55555582e-01
      6.11111104e-01 7.77777791e-01 7.77777791e-01 9.72222209e-01
      9.16666687e-01 9.16666687e-01 9.44444478e-01 1. 1. 1.
      2.77777791e-01 2.50000000e-01 2.50000000e-01 5.55555582e-01
      8.05555582e-01 8.05555582e-01 8.05555582e-01 8.05555582e-01
      8.05555582e-01 7.77777791e-01 2.77777791e-01 2.50000000e-01
      2.77777791e-01 9.44444478e-01 1. 1. 5.83333313e-01 4.44444448e-01
      3.88888896e-01 3.33333343e-01 7.77777791e-01 8.05555582e-01
      8.05555582e-01 8.05555582e-01 8.33333313e-01 7.77777791e-01
      6.38888896e-01 6.11111104e-01 6.94444478e-01 9.16666687e-01 1. 1.
      1. 5.83333313e-01 4.72222239e-01 4.44444448e-01 5.55555582e-01
      6.66666687e-01 7.50000000e-01 6.94444478e-01 7.22222209e-01
      6.66666687e-01 5.27777791e-01 5.00000000e-01 5.55555582e-01
      7.22222209e-01 8.88888896e-01 8.61111104e-01 8.61111104e-01
      3.61111104e-01 2.22222224e-01 1.66666672e-01 5.55555560e-02
      3.33333343e-01 5.00000000e-01 5.27777791e-01 5.27777791e-01
      6.94444478e-01 6.11111104e-01 4.72222239e-01 5.27777791e-01
      6.66666687e-01 1. 1. 1. 9.72222209e-01 7.77777791e-01
      6.94444478e-01 6.66666687e-01 6.38888896e-01 6.38888896e-01
      6.11111104e-01 6.38888896e-01 6.38888896e-01 5.83333313e-01
      5.27777791e-01 5.83333313e-01 6.66666687e-01 8.33333313e-01 1.
      9.72222209e-01 0. 7.91304290e-01 9.21739101e-01 9.39130366e-01
      9.56521690e-01 9.65217352e-01 6.52173877e-01 4.78260845e-01
      4.26086932e-01 3.73913020e-01 6.26086950e-01 6.52173877e-01
      7.04347789e-01 7.47826040e-01 7.91304290e-01 7.65217364e-01
      6.43478215e-01 5.39130390e-01 5.13043463e-01 6.26086950e-01
      7.47826040e-01 7.47826040e-01 7.39130378e-01 6.95652127e-01
      6.78260863e-01 6.60869539e-01 6.86956465e-01 6.95652127e-01
      6.52173877e-01 4.43478227e-01 4.34782594e-01 5.30434787e-01
      8.52173865e-01 9.99999940e-01 9.56521690e-01 9.30434763e-01
      9.13043439e-01 2.66666664e-03 2.66666664e-03 1.33333332e-03 0.
      2.66666664e-03 1.06666666e-02 6.66666683e-03 0. 7.99999945e-03
      9.33333300e-03 1.59999989e-02 2.53333338e-02 2.13333331e-02
      2.66666673e-02 3.19999978e-02 5.86666651e-02 9.73333344e-02
      1.84000000e-01 3.03999990e-01 6.43999994e-01 1. 9.78666663e-01
      9.81333315e-01 4.89333332e-01 3.03999990e-01 1.26666665e-01
      1.71999991e-01 1.01333335e-01 8.53333324e-02 7.06666633e-02
      5.99999987e-02 1.86666660e-02 1.59999989e-02 4.13333327e-02
      2.53333338e-02 4.93333340e-02 1.59999989e-02 1.33333337e-02
      1.06666666e-02 7.99999945e-03 2.66666664e-03 1.33333332e-03 0.
      3.99999972e-03 0. 1.33333332e-03 2.66666664e-03 0. 1.33333332e-03
      1.33333332e-03 0. 0. 0. 0. 2.66666664e-03 1.33333332e-03 0. 0.
      1.33333332e-03 0. 1.33333332e-03 0. 0. 0. 0. 1.33333332e-03 0. 0.
      0. 1.33333332e-03 0. 0. 0. 1.33333332e-03 0. 0. 0. 0. 0. 0.
      2.66666664e-03 0. 0. 0. 0. 0. 0. 0. 0. 0. 0. 0. 0. 2.66666664e-03
      0. 1.33333332e-03 1.33333332e-03 0. 1.33333332e-03 1.33333332e-03
      1.33333332e-03 9.33333300e-03 1.33333337e-02 1.33333337e-02
      1.73333324e-02 2.40000002e-02 4.26666662e-02 3.86666656e-02
      3.99999972e-03 9.46666673e-02 4.39999998e-02 5.33333346e-02
      5.86666651e-02 1.33333332e-03 2.66666673e-02 9.33333300e-03
      1.33333337e-02 0. 0. 0. 1.33333332e-03 0. 0. 0. 0. 3.99999972e-03
      0. 0. 0. 0. 0. 0. 0. 0. 0. 0. 0. 0. 0. 0. 0. 0. 0. 0. 0. 0. 0. 0.
      0. 0. 0. 0. 0. 0. 0. 0. 0. 0. 0. 0. 0. 0. 0. 0. 0. 0. 0. 0. 0. 0.
      0. 0. 0. 0. 0. 0. 0. 0. 0. 0.</_>
    <_>
      4.34782617e-02 0. 0. 0. 0. 0. 0. 0. 0. 0. 0. 0. 4.34782624e-01
      4.34782624e-01 4.34782617e-02 1.73913047e-01 4.34782624e-01
      3.47826093e-01 1.30434781e-01 5.65217376e-01 8.69565248e-01
      3.91304344e-01 3.91304344e-01 7.39130437e-01 4.34782624e-01
      7.82608688e-01 2.17391312e-01 4.34782617e-02 4.34782617e-02
      8.69565234e-02 2.17391312e-01 3.91304344e-01 4.78260875e-01
      5.65217376e-01 4.78260875e-01 4.78260875e-01 6.95652187e-01
      7.39130437e-01 5.21739125e-01 2.17391312e-01 0. 4.34782617e-02
      8.69565234e-02 8.69565234e-02 2.17391312e-01 2.17391312e-01
      8.69565234e-02 1.30434781e-01 1.73913047e-01 2.17391312e-01
      9.13043499e-01 1. 5.65217376e-01 1.73913047e-01 1.73913047e-01
      1.73913047e-01 1.73913047e-01 1.73913047e-01 1.30434781e-01
      1.30434781e-01 4.34782617e-02 4.34782617e-02 8.69565234e-02
      8.69565234e-02 5.21739125e-01 8.26086998e-01 7.39130437e-01
      4.34782624e-01 3.91304344e-01 3.04347843e-01 4.34782624e-01
      5.65217376e-01 7.82608688e-01 7.39130437e-01 5.65217376e-01
      8.69565234e-02 8.69565234e-02 8.69565234e-02 7.82608688e-01
      9.13043499e-01 6.08695686e-01 1.30434781e-01 1.30434781e-01
      1.30434781e-01 1.30434781e-01 1.73913047e-01 2.17391312e-01
      7.39130437e-01 7.82608688e-01 3.04347843e-01 4.34782617e-02
      4.34782617e-02 2.60869563e-01 4.78260875e-01 4.78260875e-01
      3.91304344e-01 3.91304344e-01 4.34782624e-01 4.34782624e-01
      3.91304344e-01 4.34782624e-01 3.91304344e-01 1.73913047e-01 0.
      4.34782617e-02 4.34782617e-02 3.04347843e-01 7.39130437e-01
      7.82608688e-01 6.08695686e-01 4.34782624e-01 3.91304344e-01
      3.91304344e-01 3.91304344e-01 6.08695686e-01 8.26086998e-01
      6.08695686e-01 1.30434781e-01 8.69565234e-02 2.17391312e-01
      5.65217376e-01 8.69565234e-02 4.34782617e-02 4.34782617e-02 0. 0.
      0. 0. 0. 0. 0. 0. 0. 0. 4.34782617e-02 3.91304344e-01
      8.88888910e-02 2.22222228e-02 9.55555558e-01 8.00000012e-01
      5.33333361e-01 3.77777785e-01 4.44444455e-02 1.77777782e-01
      3.33333343e-01 4.44444448e-01 5.33333361e-01 7.55555570e-01
      8.44444454e-01 8.22222233e-01 7.55555570e-01 6.66666687e-01
      7.11111128e-01 7.77777791e-01 8.88888896e-01 1. 9.11111116e-01
      8.88888896e-01 7.11111128e-01 8.88888896e-01 8.44444454e-01
      7.77777791e-01 7.11111128e-01 9.77777779e-01 9.33333337e-01
      5.33333361e-01 1.55555561e-01 0. 0. 2.66666681e-01 3.77777785e-01
      6.66666701e-02 5.66037707e-02 0. 0. 0. 0. 0. 3.77358496e-02 0. 0.
      0. 0. 0. 0. 0. 0. 0. 0. 0. 0. 0. 0. 0. 0. 0. 0. 0. 0. 0. 0. 0.
      5.39083546e-03 0. 0. 0. 0. 0. 8.08625296e-03 0. 0. 0. 0. 0.
      3.50404307e-02 0. 0. 0. 0. 0. 0. 0. 7.27762803e-02 0. 0. 0. 0.
      1.34770889e-02 2.69541773e-03 0. 0. 0. 1.61725059e-02 0. 0.
      2.69541773e-03 0. 0. 6.46900237e-02 2.69541773e-03 5.39083546e-03
      2.42587589e-02 4.04312648e-02 8.08625296e-03 1.88679248e-02
      1.61725059e-02 3.23450118e-02 1.18598379e-01 2.42587589e-02
      2.96495948e-02 0. 2.42587589e-02 9.70350355e-02 1.07816709e-02 0.
      1.15902960e-01 3.50404307e-02 2.15633418e-02 0. 9.97304544e-02
      1.07816709e-02 5.39083546e-03 2.61455506e-01 8.08625296e-03
      1.88679248e-02 4.04312648e-02 2.15633418e-02 1.59029648e-01
      2.56064683e-01 3.50404307e-02 1.59029648e-01 6.19946085e-02
      9.43396240e-02 3.53099734e-01 1.64420485e-01 4.95956868e-01
      1.40161723e-01 2.80323446e-01 3.26145560e-01 4.20485169e-01
      2.83018857e-01 5.71428537e-01 6.87331498e-01 6.36118591e-01
      8.32884073e-01 2.64150947e-01 1. 3.71967643e-01 7.97843635e-01
      2.15633422e-01 3.04582208e-01 3.23450118e-01 3.80053908e-01
      6.46900237e-02 2.26415083e-01 1.53638810e-01 1.23989217e-01
      4.31266844e-01 1.10512130e-01 1.40161723e-01 1.18598379e-01
      4.31266837e-02 5.92991896e-02 4.31266837e-02 9.43396240e-02
      1.21293798e-01 2.96495948e-02 3.50404307e-02 2.42587589e-02
      8.08625296e-03 2.42587589e-02 8.08625296e-03 7.54716992e-02
      1.88679248e-02 2.69541773e-03 1.07816709e-02 0. 1.07816709e-02
      1.07816709e-02 2.69541773e-03 0. 5.39083546e-03 1.34770889e-02 0.
      0. 2.69541773e-03 0. 0. 3.23450118e-02 0. 0. 0. 1.88679248e-02 0.
      2.69541773e-03 2.69541773e-03 0. 1.88679248e-02 0. 0. 0. 0.
      1.61725059e-02 0. 0. 5.92991896e-02 0. 0. 0. 1.07816709e-02 0. 0.</_>
    <_>
      0. 0. 0. 0. 6.66666701e-02 2.66666681e-01 2.66666681e-01
      2.66666681e-01 4.66666698e-01 7.00000048e-01 7.33333349e-01
      8.33333373e-01 8.33333373e-01 7.66666710e-01 7.66666710e-01
      7.66666710e-01 8.00000072e-01 8.00000072e-01 7.66666710e-01
      7.33333349e-01 5.00000000e-01 2.33333349e-01 1.66666672e-01
      4.66666698e-01 8.33333373e-01 8.00000072e-01 8.00000072e-01
      8.00000072e-01 8.33333373e-01 5.33333361e-01 3.33333343e-01
      3.33333343e-01 4.00000036e-01 4.33333367e-01 4.66666698e-01
      6.66666687e-01 8.00000072e-01 7.33333349e-01 7.33333349e-01
      4.66666698e-01 4.66666698e-01 5.00000000e-01 6.00000024e-01
      6.33333385e-01 6.00000024e-01 5.33333361e-01 5.66666722e-01
      7.00000048e-01 8.33333373e-01 8.33333373e-01 9.00000036e-01
      9.00000036e-01 9.33333397e-01 8.33333373e-01 7.00000048e-01
      7.33333349e-01 6.66666687e-01 6.66666687e-01 7.00000048e-01
      7.00000048e-01 7.33333349e-01 7.66666710e-01 6.66666687e-01
      6.33333385e-01 8.33333373e-01 8.66666734e-01 9.00000036e-01
      9.66666698e-01 9.33333397e-01 9.00000036e-01 9.33333397e-01
      9.33333397e-01 1. 8.33333373e-01 8.00000072e-01 9.33333397e-01
      8.33333373e-01 6.33333385e-01 4.33333367e-01 8.00000072e-01
      9.33333397e-01 9.00000036e-01 9.66666698e-01 9.33333397e-01
      9.66666698e-01 9.66666698e-01 6.66666687e-01 7.33333349e-01
      8.00000072e-01 9.66666698e-01 9.33333397e-01 9.33333397e-01
      8.33333373e-01 9.00000036e-01 6.33333385e-01 4.66666698e-01
      5.33333361e-01 7.00000048e-01 8.00000072e-01 8.66666734e-01
      9.33333397e-01 1. 9.33333397e-01 9.00000036e-01 9.33333397e-01 1.
      9.66666698e-01 9.33333397e-01 8.00000072e-01 7.33333349e-01
      6.33333385e-01 6.00000024e-01 6.00000024e-01 6.66666687e-01
      8.33333373e-01 6.33333385e-01 7.00000048e-01 9.33333397e-01
      9.33333397e-01 9.33333397e-01 9.00000036e-01 8.00000072e-01
      7.66666710e-01 4.33333367e-01 3.33333351e-02 6.66666701e-02
      1.00000009e-01 1.66666672e-01 2.00000018e-01 2.33333349e-01 0. 0.
      0. 0. 0. 0. 8.15533996e-01 1. 9.61165071e-01 7.86407769e-01
      6.21359229e-01 7.47572839e-01 9.12621379e-01 9.80582535e-01
      9.80582535e-01 9.70873773e-01 9.51456308e-01 8.64077687e-01
      8.93203914e-01 9.51456308e-01 9.12621379e-01 9.41747606e-01
      9.80582535e-01 9.70873773e-01 9.22330081e-01 8.54368925e-01
      8.44660223e-01 8.73786390e-01 9.70873773e-01 9.41747606e-01
      8.93203914e-01 7.47572839e-01 5.82524300e-01 4.07766998e-01
      2.71844655e-01 4.17475730e-01 4.46601957e-01 2.13592231e-01
      6.79611638e-02 0. 0. 0. 1. 1.53284669e-01 2.22627729e-01
      1.67883217e-01 2.66423345e-01 4.52554733e-01 8.17518234e-01
      1.27737224e-01 3.28467160e-01 1.82481751e-01 1.09489053e-01
      4.23357666e-01 1.16788320e-01 6.42335773e-01 1.02189779e-01
      1.27737224e-01 1.27737224e-01 6.56934306e-02 4.74452563e-02
      1.13138683e-01 8.02919686e-01 1.05839416e-01 2.55474448e-02
      2.18978096e-02 1.53284669e-01 6.56934306e-02 2.91970801e-02
      7.29927002e-03 0. 3.64963501e-03 4.30656940e-01 0. 1.09489048e-02
      0. 2.18978096e-02 1.02189779e-01 1.05839416e-01 3.64963501e-03
      1.82481743e-02 3.64963501e-03 2.91970801e-02 0. 8.75912383e-02
      2.91970801e-02 0. 7.29927002e-03 3.64963501e-03 0. 1.09489048e-02
      0. 1.60583943e-01 1.82481743e-02 1.09489048e-02 0. 7.29927002e-03
      5.10948896e-02 1.82481743e-02 7.29927002e-03 3.64963501e-03 0.
      3.64963487e-02 0. 7.29927002e-03 1.09489048e-02 0. 7.29927002e-03
      1.38686135e-01 1.09489048e-02 7.29927002e-03 2.18978096e-02
      5.10948896e-02 3.64963501e-03 7.29927002e-03 4.01459858e-02
      5.83941601e-02 2.99270064e-01 3.64963487e-02 1.45985400e-02
      7.29927002e-03 4.74452563e-02 2.08029196e-01 1.09489048e-02
      1.09489048e-02 1.56934306e-01 1.42335773e-01 4.74452563e-02
      2.55474448e-02 2.00729921e-01 3.64963487e-02 4.37956192e-02
      3.28467160e-01 5.47445267e-02 7.66423345e-02 8.02919716e-02
      9.12408754e-02 3.35766435e-01 3.54014605e-01 6.20437935e-02
      3.10218990e-01 1.97080284e-01 1.60583943e-01 4.56204385e-01
      1.31386861e-01 4.59854007e-01 1.49635032e-01 2.08029196e-01
      2.00729921e-01 8.39416087e-02 2.91970801e-02 1.64233580e-01
      2.70072997e-01 1.20437957e-01 2.91970801e-02 3.28467153e-02
      1.71532840e-01 1.42335773e-01 4.74452563e-02 0. 7.29927002e-03 0.
      3.46715331e-01 0. 0. 0. 4.74452563e-02 1.24087587e-01
      1.27737224e-01 3.64963501e-03 2.55474448e-02 7.29927002e-03
      3.64963487e-02 0. 8.75912383e-02 5.10948896e-02 0. 1.09489048e-02
      1.09489048e-02 0. 1.45985400e-02 0. 1.56934306e-01 5.10948896e-02
      1.82481743e-02 0. 0. 7.29926974e-02 3.64963501e-03 3.64963501e-03
      0. 0. 4.37956192e-02 0. 3.64963501e-03 2.91970801e-02 0.
      1.45985400e-02 1.09489053e-01 7.29927002e-03 2.91970801e-02
      2.91970801e-02 7.66423345e-02 1.09489048e-02 3.64963501e-03
      6.20437935e-02 1.82481743e-02 3.13868612e-01 3.64963487e-02
      1.82481743e-02 1.09489048e-02 6.20437935e-02 3.02919716e-01
      1.82481743e-02 2.18978096e-02 2.04379559e-01 1.09489053e-01
      1.02189779e-01 6.93430677e-02 2.95620441e-01 1.56934306e-01
      1.09489053e-01</_>
    <_>
      1. 1. 1.94444448e-01 1.66666672e-01 5.55555582e-01 7.50000000e-01
      4.72222239e-01 4.72222239e-01 3.61111104e-01 2.77777791e-01
      3.88888896e-01 5.00000000e-01 4.16666657e-01 5.00000000e-01
      8.05555582e-01 5.55555560e-02 0. 6.66666687e-01 1. 1.
      9.16666687e-01 8.05555582e-01 6.11111104e-01 5.00000000e-01
      4.16666657e-01 2.77777791e-01 3.05555552e-01 4.44444448e-01
      4.44444448e-01 2.77777791e-01 1.94444448e-01 1.94444448e-01
      5.00000000e-01 7.22222209e-01 9.16666687e-01 1. 1. 1. 1.
      9.72222209e-01 8.33333313e-01 8.33333313e-01 8.61111104e-01 1. 1.
      1. 1. 3.61111104e-01 8.33333358e-02 2.77777780e-02 1.38888896e-01
      7.22222209e-01 7.77777791e-01 8.05555582e-01 8.05555582e-01
      8.05555582e-01 7.77777791e-01 6.94444478e-01 4.44444448e-01
      4.72222239e-01 5.27777791e-01 7.22222209e-01 1. 1. 1. 1.
      9.16666687e-01 8.88888896e-01 9.16666687e-01 9.16666687e-01
      9.16666687e-01 6.11111104e-01 4.44444448e-01 3.33333343e-01
      2.77777791e-01 4.72222239e-01 5.55555582e-01 5.83333313e-01
      6.94444478e-01 7.77777791e-01 8.88888896e-01 1. 1. 1.
      1.94444448e-01 1.11111112e-01 2.77777780e-02 0. 6.94444478e-01
      7.77777791e-01 8.05555582e-01 8.05555582e-01 8.05555582e-01
      7.77777791e-01 6.94444478e-01 2.50000000e-01 2.77777780e-02
      1.38888896e-01 2.22222224e-01 9.44444478e-01 1. 1. 9.16666687e-01
      3.05555552e-01 1.94444448e-01 1.66666672e-01 3.05555552e-01
      6.11111104e-01 6.38888896e-01 6.66666687e-01 6.66666687e-01
      6.38888896e-01 5.83333313e-01 4.16666657e-01 3.33333343e-01
      3.88888896e-01 5.00000000e-01 8.61111104e-01 1. 1. 1.
      7.22222209e-01 3.33333343e-01 1.11111112e-01 2.77777780e-02
      1.94444448e-01 4.72222239e-01 5.83333313e-01 6.11111104e-01
      6.11111104e-01 5.55555582e-01 4.16666657e-01 0. 5.55555560e-02
      2.77777791e-01 5.55555582e-01 6.35416687e-01 5.72916687e-01
      5.31250000e-01 8.64583373e-01 1. 9.89583373e-01 9.79166687e-01
      9.37500000e-01 9.58333373e-01 9.16666687e-01 9.16666687e-01
      9.27083373e-01 8.54166687e-01 8.33333373e-01 7.91666687e-01
      7.70833373e-01 8.12500000e-01 8.12500000e-01 8.22916687e-01
      8.33333373e-01 9.16666687e-01 9.68750000e-01 9.79166687e-01
      9.89583373e-01 9.37500000e-01 8.85416687e-01 8.54166687e-01
      8.12500000e-01 7.91666687e-01 7.60416687e-01 8.02083373e-01
      7.91666687e-01 7.29166687e-01 7.39583373e-01 8.02083373e-01
      8.43750000e-01 0. 0. 0. 0. 0. 0. 0. 0. 9.46073793e-04 0. 0.
      2.83822138e-03 1.89214759e-03 6.62251655e-03 1.41911069e-02
      5.01419120e-02 6.43330216e-02 1.31504253e-01 7.56859034e-02
      1.50425732e-01 3.00851464e-01 4.75875109e-01 1. 3.20719004e-01
      7.43614018e-01 2.16650903e-01 5.12772024e-01 5.58183528e-02
      1.37180701e-01 8.60927179e-02 1.12582780e-01 9.46073793e-04
      9.46073830e-02 1.13528855e-02 1.89214759e-02 3.59508023e-02 0. 0.
      4.73036896e-03 0. 2.83822138e-03 0. 0. 1.89214759e-03 0. 0. 0. 0.
      0. 0. 0. 0. 0. 0. 0. 0. 0. 0. 0. 0. 0. 0. 0. 0. 0. 0. 0. 0. 0. 0.
      0. 0. 0. 0. 0. 0. 0. 0. 0. 0. 0. 0. 0. 0. 0. 0. 0. 0. 0. 0. 0. 0.
      0. 0. 0. 0. 0. 0. 0. 0. 0. 0. 0. 0. 0. 0. 0. 0. 0. 0. 0. 0. 0. 0.
      0. 0. 0. 0. 0. 0. 0. 0. 0. 0. 0. 0. 0. 0. 0. 0. 0. 0. 0. 0. 0. 0.
      0. 0. 0. 0. 0. 0. 0. 0. 0. 0. 0. 0. 0. 0. 0. 0. 0. 0. 0. 0. 0. 0.
      0. 0. 0. 0. 0. 0. 0. 0. 0. 0. 0. 0. 0. 0. 0. 0. 0. 0. 0. 0. 0. 0.</_>
    <_>
      1.93548381e-01 2.58064508e-01 1.93548381e-01 1.93548381e-01
      2.58064508e-01 2.58064508e-01 2.25806445e-01 2.25806445e-01
      1.93548381e-01 2.90322572e-01 2.25806445e-01 1.93548381e-01
      9.67741907e-02 6.45161271e-02 3.22580636e-02 3.22580636e-02 0.
      7.74193525e-01 6.45161271e-02 3.22580636e-02 2.25806445e-01
      5.16129017e-01 5.16129017e-01 6.12903237e-01 7.09677398e-01
      5.16129017e-01 4.19354826e-01 3.87096763e-01 7.74193525e-01
      7.74193525e-01 3.54838699e-01 3.54838699e-01 6.45161271e-01
      3.22580636e-01 1.29032254e-01 3.22580636e-01 9.03225780e-01
      9.03225780e-01 8.38709652e-01 3.22580636e-01 3.54838699e-01
      4.83870953e-01 5.16129017e-01 5.16129017e-01 5.16129017e-01
      5.16129017e-01 5.48387051e-01 5.16129017e-01 5.16129017e-01
      6.12903237e-01 7.41935492e-01 9.35483813e-01 1. 1. 1.
      4.19354826e-01 3.54838699e-01 7.41935492e-01 8.70967746e-01
      9.03225780e-01 7.74193525e-01 3.87096763e-01 4.19354826e-01
      7.41935492e-01 5.48387051e-01 2.90322572e-01 3.87096763e-01
      8.38709652e-01 8.06451559e-01 8.06451559e-01 3.54838699e-01
      3.87096763e-01 3.22580636e-01 8.38709652e-01 8.38709652e-01
      8.70967746e-01 3.54838699e-01 3.22580636e-01 3.54838699e-01
      6.12903237e-01 2.90322572e-01 2.90322572e-01 8.38709652e-01
      8.70967746e-01 7.41935492e-01 1.61290318e-01 2.58064508e-01
      2.58064508e-01 7.74193525e-01 8.06451559e-01 8.06451559e-01
      3.22580636e-01 2.90322572e-01 2.58064508e-01 6.77419305e-01
      4.19354826e-01 2.90322572e-01 3.87096763e-01 8.70967746e-01
      8.06451559e-01 6.12903237e-01 9.67741907e-02 6.45161271e-02
      3.54838699e-01 4.19354826e-01 3.87096763e-01 5.48387051e-01
      6.12903237e-01 6.12903237e-01 3.87096763e-01 3.54838699e-01
      5.48387051e-01 5.48387051e-01 5.16129017e-01 3.54838699e-01
      4.83870953e-01 5.16129017e-01 5.48387051e-01 6.12903237e-01
      8.06451559e-01 7.09677398e-01 5.48387051e-01 1.29032254e-01
      1.29032254e-01 8.70967746e-01 8.70967746e-01 8.38709652e-01
      1.61290318e-01 1.29032254e-01 3.22580636e-01 6.12903237e-01
      4.51612890e-01 3.22580636e-02 2.90322572e-01 3.87096763e-01
      1.61290318e-01 1. 1.79487184e-01 1.36752144e-01 4.87179518e-01
      4.78632510e-01 4.61538494e-01 6.49572670e-01 6.66666687e-01
      7.35042751e-01 5.72649598e-01 4.52991486e-01 3.93162400e-01
      4.35897470e-01 4.95726526e-01 4.95726526e-01 5.47008574e-01
      6.15384638e-01 6.06837630e-01 5.81196606e-01 5.64102590e-01
      5.12820542e-01 5.29914558e-01 5.81196606e-01 6.06837630e-01
      5.64102590e-01 4.61538494e-01 4.18803453e-01 4.70085502e-01
      5.47008574e-01 5.55555582e-01 4.78632510e-01 3.76068383e-01
      9.40170959e-02 1.79487184e-01 1.79487184e-01 1.45299152e-01
      1.90839693e-01 0. 0. 0. 0. 0. 0. 0. 0. 0. 0. 0. 0. 0. 0. 0. 0. 0.
      0. 0. 0. 0. 0. 0. 0. 0. 0. 0. 0. 0. 3.81679391e-03 0. 0. 0. 0. 0.
      3.81679391e-03 0. 0. 0. 1.90839695e-03 0. 5.72519097e-03 0. 0. 0.
      0. 0. 0. 0. 3.62595432e-02 0. 0. 0. 0. 0. 0. 0. 0. 0.
      1.90839695e-03 0. 0. 0. 0. 0. 3.81679391e-03 0. 1.90839695e-03 0.
      0. 0. 0. 0. 1.90839695e-03 1.58396944e-01 0. 0. 0. 0.
      9.54198465e-03 0. 0. 1.90839693e-02 0. 0. 1.90839695e-03
      3.81679391e-03 0. 0. 5.72519097e-03 0. 0. 0. 0. 1.90839695e-03
      3.24427485e-02 0. 7.63358781e-03 3.81679391e-03 1.90839695e-03
      2.67175566e-02 2.48091612e-02 8.58778656e-02 4.77099232e-02
      7.63358772e-02 1.14503816e-01 1.81297705e-01 2.09923670e-01
      3.77862602e-01 5.38167953e-01 5.05725205e-01 8.79770994e-01
      8.70229006e-01 1. 6.41221404e-01 6.73664153e-01 3.60687017e-01
      2.53816783e-01 2.84351140e-01 3.43511462e-01 9.16030556e-02
      1.58396944e-01 1.77480921e-01 1.10687025e-01 2.00381681e-01
      2.74809152e-01 6.67938963e-02 4.00763378e-02 3.62595432e-02
      4.19847332e-02 1.52671756e-02 1.52671756e-02 1.90839693e-02
      1.33587783e-02 2.29007639e-02 1.52671756e-02 5.72519097e-03
      1.14503819e-02 0. 1.71755720e-02 3.81679391e-03 0. 0. 0. 0. 0. 0.
      0. 0. 1.90839695e-03 0. 0. 0. 0. 0. 3.81679391e-03 0. 0. 0. 0. 0.
      0. 0. 0. 5.72519097e-03 0. 0. 0. 0. 0. 0. 0. 0. 0. 0. 0. 0. 0. 0.</_>
    <_>
      3.03030312e-02 0. 0. 0. 1.81818187e-01 1. 9.09090936e-02
      9.09090936e-02 9.09090936e-02 2.12121218e-01 3.63636374e-01
      4.24242437e-01 4.54545468e-01 5.45454562e-01 3.93939406e-01
      3.03030312e-01 2.42424250e-01 6.36363626e-01 5.75757623e-01
      1.81818187e-01 2.12121218e-01 1.21212125e-01 3.03030312e-02
      3.03030312e-02 3.03030312e-02 6.96969748e-01 7.27272749e-01
      6.66666687e-01 2.12121218e-01 1.81818187e-01 2.12121218e-01
      2.12121218e-01 2.42424250e-01 2.42424250e-01 2.42424250e-01
      2.12121218e-01 2.72727281e-01 1.51515156e-01 3.03030312e-02
      3.03030312e-02 3.03030312e-02 0. 0. 3.03030312e-02 3.03030312e-02
      3.03030312e-02 3.03030312e-02 3.03030312e-02 5.45454562e-01
      6.06060624e-01 6.66666687e-01 1.81818187e-01 1.51515156e-01
      1.81818187e-01 2.42424250e-01 2.42424250e-01 2.42424250e-01
      2.72727281e-01 6.36363626e-01 5.75757623e-01 4.24242437e-01 0. 0.
      0. 6.06060624e-02 9.09090936e-02 1.21212125e-01 1.21212125e-01
      9.09090936e-02 6.06060624e-02 6.06060624e-02 6.06060624e-02
      9.09090936e-02 1.21212125e-01 6.36363626e-01 6.06060624e-01
      5.75757623e-01 0. 0. 3.03030312e-02 6.06060624e-02 3.03030312e-02
      6.06060624e-02 3.03030312e-02 0. 3.33333343e-01 6.66666687e-01
      6.66666687e-01 1.21212125e-01 0. 0. 0. 0. 0. 0. 0. 0.
      3.03030312e-01 4.54545468e-01 5.75757623e-01 3.33333343e-01
      2.42424250e-01 2.42424250e-01 2.12121218e-01 2.12121218e-01
      3.33333343e-01 4.54545468e-01 6.06060624e-01 4.54545468e-01
      1.51515156e-01 9.09090936e-02 6.06060624e-02 6.06060624e-02
      1.21212125e-01 3.93939406e-01 6.06060624e-01 4.84848499e-01
      3.03030312e-01 2.42424250e-01 2.12121218e-01 2.12121218e-01
      3.03030312e-01 3.63636374e-01 5.45454562e-01 5.45454562e-01
      3.63636374e-01 0. 6.06060624e-02 6.06060624e-02 7.57575750e-01
      1.81818187e-01 0. 0. 0. 0. 0. 5.35714328e-02 4.10714298e-01
      1.60714298e-01 7.14285746e-02 1.25000000e-01 2.50000000e-01
      5.71428597e-01 1. 9.82142925e-01 7.32142866e-01 7.32142866e-01
      6.25000000e-01 5.71428597e-01 5.17857194e-01 6.42857194e-01
      6.78571463e-01 9.10714328e-01 8.75000060e-01 7.50000060e-01
      6.25000000e-01 6.60714328e-01 6.78571463e-01 6.42857194e-01
      7.14285731e-01 8.03571463e-01 8.21428597e-01 8.03571463e-01
      6.96428597e-01 4.28571463e-01 1.07142866e-01 1.78571437e-02
      1.78571437e-02 5.35714328e-02 5.35714328e-02 3.39285731e-01
      1.25000000e-01 1.67682916e-01 0. 0. 9.14634112e-03 0.
      2.13414617e-02 2.74390243e-02 0. 0. 0. 0. 6.09756075e-03 0.
      1.21951215e-02 0. 0. 0. 0. 0. 0. 1.52439019e-02 0. 0. 0. 0. 0. 0.
      0. 0. 0. 1.52439019e-02 0. 0. 0. 0. 0. 6.09756075e-03 0. 0. 0. 0.
      0. 9.14634112e-03 0. 0. 0. 0. 0. 0. 0. 2.74390243e-02 0. 0. 0. 0.
      0. 0. 0. 0. 0. 1.21951215e-02 0. 0. 0. 0. 3.04878037e-03
      4.57317047e-02 0. 0. 3.04878037e-03 2.13414617e-02 3.04878037e-03
      3.04878037e-03 2.13414617e-02 2.74390243e-02 1.58536583e-01
      1.52439019e-02 3.04878037e-03 0. 4.57317047e-02 2.04268292e-01
      6.09756075e-03 1.21951215e-02 1.21951215e-01 1.21951215e-01
      6.09756075e-02 3.04878037e-03 2.46951208e-01 3.96341458e-02
      1.52439019e-02 3.71951193e-01 3.04878037e-03 7.01219514e-02
      1.67682916e-01 0. 4.08536583e-01 3.35365832e-01 0. 4.32926804e-01
      2.74390243e-02 3.04878037e-03 4.57317054e-01 9.14634112e-03
      9.26829219e-01 2.59146333e-01 6.70731664e-02 5.57926834e-01
      2.13414617e-02 4.57317047e-02 5.64024389e-01 2.49999985e-01
      6.61585331e-01 1.73780486e-01 2.98780471e-01 6.18902445e-01
      5.60975611e-01 3.10975611e-01 0. 9.14634112e-03 0. 9.99999940e-01
      0. 1.18902437e-01 0. 4.54268277e-01 6.95121944e-01 5.24390221e-01
      9.14634112e-03 1.40243903e-01 7.31707290e-02 2.10365847e-01
      6.09756075e-03 3.71951193e-01 3.23170722e-01 0. 5.79268262e-02
      4.26829234e-02 0. 1.95121944e-01 1.52439019e-02 1.24999993e-01
      1.92073166e-01 9.75609720e-02 1.21951215e-02 3.04878037e-02
      1.82926819e-01 1.21951215e-01 7.01219514e-02 2.74390243e-02
      6.09756075e-03 7.92682916e-02 0. 3.35365832e-02 8.23170692e-02 0.
      4.57317047e-02 1.18902437e-01 2.13414617e-02 2.13414617e-02
      3.04878037e-02 5.48780486e-02 1.21951215e-02 0. 1.52439019e-02
      2.13414617e-02 7.01219514e-02 3.04878037e-03 0. 0. 0.
      2.43902430e-02 0. 0. 5.48780486e-02 0. 0. 0. 9.14634112e-03 0. 0.</_>
    <_>
      0. 0. 0. 0. 0. 0. 0. 0. 0. 0. 0. 0. 0. 1.66666672e-01
      5.33333361e-01 5.66666722e-01 5.66666722e-01 5.00000000e-01
      3.33333343e-01 3.00000012e-01 7.33333349e-01 8.00000072e-01
      3.33333343e-01 2.33333349e-01 2.00000018e-01 1.66666672e-01
      4.00000036e-01 3.33333343e-01 1.66666672e-01 2.33333349e-01
      4.66666698e-01 6.33333385e-01 6.66666687e-01 4.33333367e-01
      4.33333367e-01 6.33333385e-01 7.00000048e-01 6.33333385e-01
      5.00000000e-01 3.00000012e-01 1.66666672e-01 1.33333340e-01
      2.33333349e-01 6.00000024e-01 6.33333385e-01 5.00000000e-01
      3.00000012e-01 1.66666672e-01 1.33333340e-01 4.00000036e-01
      7.66666710e-01 8.00000072e-01 8.00000072e-01 1.66666672e-01
      1.66666672e-01 3.00000012e-01 2.66666681e-01 2.33333349e-01
      3.00000012e-01 8.33333373e-01 9.66666698e-01 8.00000072e-01
      1.66666672e-01 2.00000018e-01 2.33333349e-01 9.66666698e-01 1.
      9.00000036e-01 5.33333361e-01 2.00000018e-01 2.33333349e-01
      4.33333367e-01 3.00000012e-01 3.33333343e-01 6.00000024e-01
      9.66666698e-01 9.00000036e-01 7.66666710e-01 2.00000018e-01
      2.33333349e-01 3.33333343e-01 7.00000048e-01 8.33333373e-01
      8.66666734e-01 6.66666687e-01 6.00000024e-01 6.66666687e-01
      5.33333361e-01 5.66666722e-01 7.66666710e-01 7.66666710e-01
      7.00000048e-01 6.00000024e-01 1.00000009e-01 6.66666701e-02
      2.33333349e-01 8.00000072e-01 9.66666698e-01 9.00000036e-01
      3.66666675e-01 3.00000012e-01 3.66666675e-01 4.33333367e-01
      3.00000012e-01 4.00000036e-01 8.33333373e-01 8.00000072e-01
      7.00000048e-01 2.00000018e-01 1.00000009e-01 2.33333349e-01
      6.33333385e-01 6.33333385e-01 7.33333349e-01 9.00000036e-01
      4.00000036e-01 3.33333343e-01 3.66666675e-01 2.66666681e-01
      2.66666681e-01 4.66666698e-01 6.66666687e-01 6.66666687e-01
      2.66666681e-01 6.66666701e-02 2.00000018e-01 6.00000024e-01
      6.66666701e-02 0. 0. 0. 0. 0. 0. 0. 0. 5.14705896e-01
      2.05882356e-01 5.88235296e-02 8.82352963e-02 1.61764711e-01
      3.52941185e-01 4.85294133e-01 6.61764681e-01 9.11764681e-01
      8.97058845e-01 8.23529422e-01 8.67647052e-01 8.82352948e-01
      8.23529422e-01 7.79411793e-01 7.79411793e-01 8.52941155e-01
      8.97058845e-01 8.97058845e-01 8.97058845e-01 7.94117630e-01
      7.79411793e-01 7.64705896e-01 7.94117630e-01 7.50000000e-01
      8.97058845e-01 9.41176474e-01 1. 7.05882370e-01 6.47058845e-01
      5.44117630e-01 3.82352948e-01 2.35294119e-01 4.26470578e-01
      8.52941155e-01 9.26470578e-01 2.53521111e-02 0. 0. 0. 0. 0. 0. 0.
      0. 0. 0. 0. 0. 0. 0. 2.81690131e-03 0. 0. 0. 0. 1.40845065e-03 0.
      0. 5.63380262e-03 2.81690131e-03 0. 0. 0. 0. 0. 2.11267602e-02 0.
      0. 0. 1.40845065e-03 2.81690131e-03 5.63380262e-03 0.
      2.81690131e-03 0. 4.22535185e-03 0. 2.81690136e-02 7.04225339e-03
      0. 0. 0. 0. 0. 0. 9.29577425e-02 2.81690131e-03 0. 0. 0.
      4.22535185e-03 0. 0. 0. 0. 1.69014074e-02 0. 0. 2.81690131e-03 0.
      0. 1.12676052e-02 0. 0. 0. 7.04225339e-03 0. 0. 1.40845065e-03 0.
      8.16901401e-02 1.40845065e-03 0. 0. 5.63380262e-03 2.11267602e-02
      0. 0. 2.95774639e-02 1.40845065e-03 1.40845065e-03 1.40845065e-03
      7.04225339e-03 0. 1.40845065e-03 3.09859142e-02 4.22535185e-03
      9.85915493e-03 5.63380262e-03 8.45070370e-03 4.36619706e-02
      7.46478811e-02 1.12676052e-02 7.74647892e-02 6.33802786e-02
      6.61971793e-02 1.87323943e-01 1.97183087e-01 5.07042229e-01
      3.07042241e-01 7.97183096e-01 9.46478844e-01 9.99999940e-01
      6.80281639e-01 4.40845042e-01 2.92957723e-01 1.92957744e-01
      1.47887319e-01 2.95774639e-02 9.99999940e-02 4.36619706e-02
      3.52112651e-02 1.40845068e-02 7.04225339e-03 5.63380262e-03
      4.92957719e-02 1.40845065e-03 1.40845065e-03 0. 2.81690131e-03
      2.11267602e-02 2.95774639e-02 0. 5.63380262e-03 0. 4.22535185e-03
      0. 1.12676052e-02 4.22535185e-03 0. 0. 0. 0. 1.40845065e-03 0.
      5.63380262e-03 0. 0. 0. 1.40845065e-03 1.40845065e-03 0. 0. 0. 0.
      0. 0. 0. 1.40845065e-03 0. 0. 1.40845065e-03 0. 0. 0.
      1.40845065e-03 0. 0. 0. 0. 1.97183099e-02 0. 0. 0. 0. 0. 0. 0. 0.
      0. 0. 0. 0. 0. 0.</_>
    <_>
      0. 1.29032254e-01 5.16129017e-01 4.19354826e-01 3.22580636e-01
      3.87096763e-01 6.77419305e-01 8.06451559e-01 9.03225780e-01
      8.06451559e-01 8.38709652e-01 7.41935492e-01 7.74193525e-01 1. 1.
      9.67741907e-01 6.45161271e-01 5.48387051e-01 5.16129017e-01
      2.58064508e-01 2.58064508e-01 2.90322572e-01 3.87096763e-01
      5.48387051e-01 7.09677398e-01 8.38709652e-01 9.03225780e-01
      9.03225780e-01 7.09677398e-01 7.41935492e-01 9.35483813e-01
      8.70967746e-01 8.70967746e-01 7.74193525e-01 6.45161271e-01
      4.19354826e-01 2.58064508e-01 2.25806445e-01 2.58064508e-01
      2.58064508e-01 2.90322572e-01 2.58064508e-01 2.58064508e-01
      2.58064508e-01 2.25806445e-01 2.58064508e-01 4.83870953e-01
      5.16129017e-01 5.80645144e-01 7.74193525e-01 6.77419305e-01
      6.12903237e-01 5.80645144e-01 5.16129017e-01 5.16129017e-01
      5.80645144e-01 6.12903237e-01 6.45161271e-01 5.48387051e-01
      4.83870953e-01 2.58064508e-01 2.58064508e-01 2.58064508e-01
      9.67741907e-01 1. 1. 1. 4.83870953e-01 3.87096763e-01
      3.87096763e-01 3.87096763e-01 3.87096763e-01 3.87096763e-01
      4.19354826e-01 1. 1. 1. 9.67741907e-01 2.25806445e-01
      2.25806445e-01 2.90322572e-01 5.16129017e-01 5.80645144e-01
      6.77419305e-01 7.74193525e-01 6.77419305e-01 7.09677398e-01
      7.09677398e-01 7.41935492e-01 7.09677398e-01 7.74193525e-01
      8.06451559e-01 7.41935492e-01 6.77419305e-01 5.48387051e-01
      2.58064508e-01 2.58064508e-01 2.58064508e-01 3.87096763e-01
      4.51612890e-01 4.51612890e-01 3.87096763e-01 4.19354826e-01
      6.77419305e-01 7.74193525e-01 8.70967746e-01 9.67741907e-01
      8.38709652e-01 6.45161271e-01 5.80645144e-01 4.83870953e-01
      3.87096763e-01 2.58064508e-01 2.58064508e-01 2.58064508e-01
      5.48387051e-01 8.38709652e-01 9.67741907e-01 1. 1. 7.09677398e-01
      6.77419305e-01 6.45161271e-01 6.77419305e-01 7.09677398e-01
      9.35483813e-01 9.67741907e-01 9.35483813e-01 7.41935492e-01
      5.48387051e-01 4.83870953e-01 4.51612890e-01 4.51612890e-01
      3.87096763e-01 0. 0. 1. 4.01515156e-01 1.59090906e-01
      6.06060624e-02 7.57575780e-03 7.57575780e-02 3.48484874e-01
      4.54545468e-01 5.53030312e-01 4.84848499e-01 4.01515156e-01
      3.63636374e-01 3.33333343e-01 3.40909094e-01 4.31818187e-01
      4.69696999e-01 5.60606062e-01 5.30303061e-01 5.45454562e-01
      5.45454562e-01 4.84848499e-01 4.54545468e-01 4.54545468e-01
      4.46969718e-01 4.46969718e-01 5.07575750e-01 4.92424250e-01
      4.39393938e-01 4.39393938e-01 7.57575750e-01 9.84848499e-01
      9.54545498e-01 9.16666687e-01 9.16666687e-01 9.24242437e-01
      9.16666687e-01 3.19148928e-01 0. 0. 9.11854114e-03 0.
      3.03951371e-03 8.51063877e-02 0. 2.43161097e-02 0. 0.
      6.68693036e-02 0. 8.20668712e-02 1.51975686e-02 7.29483292e-02
      6.99088126e-02 6.68693036e-02 7.90273547e-02 1.55015200e-01
      2.27963522e-01 5.77507615e-02 3.95136774e-02 1.51975686e-02
      7.29483292e-02 2.73556225e-02 5.77507615e-02 0. 0. 0.
      1.94528878e-01 0. 9.11854114e-03 0. 2.12765969e-02 8.51063877e-02
      7.59878457e-02 0. 3.03951371e-03 0. 6.07902743e-03 0.
      2.49240130e-01 2.21884504e-01 0. 3.03951371e-03 0. 0.
      6.07902743e-03 0. 3.46504569e-01 9.11854114e-03 6.07902743e-03 0.
      0. 9.42249224e-02 9.11854114e-03 6.07902743e-03 0. 0.
      1.09422490e-01 0. 0. 6.07902743e-03 0. 3.03951371e-03
      2.61398166e-01 3.03951371e-03 1.51975686e-02 0. 6.38297871e-02 0.
      0. 3.64741646e-02 2.12765969e-02 7.38601804e-01 0. 0. 0.
      1.51975686e-02 2.34042555e-01 0. 0. 5.50152004e-01 6.07902743e-03
      3.64741646e-02 0. 2.03647420e-01 3.03951371e-03 0. 4.40729499e-01
      0. 1.51975686e-02 1.00303955e-01 0. 2.46200606e-01 6.38297856e-01
      0. 3.43465060e-01 2.43161097e-02 6.07902743e-03 6.38297856e-01
      2.12765969e-02 1. 4.01215822e-01 1.76291794e-01 6.83890581e-01
      1.58054709e-01 1.85410336e-01 5.04559278e-01 4.68085110e-01
      6.80851102e-01 3.49544078e-01 2.34042555e-01 4.43769008e-01
      3.03951383e-01 2.88753808e-01 2.73556225e-02 6.68693036e-02
      1.21580549e-02 5.01519740e-01 9.11854114e-03 1.51975686e-02
      1.21580549e-02 2.73556225e-02 1.03343464e-01 9.72644389e-02 0. 0.
      0. 3.03951371e-03 0. 3.03951371e-02 3.95136774e-02 0. 0. 0. 0. 0.
      0. 7.90273547e-02 0. 0. 0. 0. 9.11854114e-03 0. 0. 0. 0. 0. 0. 0.
      0. 0. 0. 3.34346518e-02 0. 0. 0. 9.11854114e-03 0. 0. 0. 0.
      9.72644389e-02 0. 0. 0. 9.11854114e-03 3.95136774e-02 0. 0.
      3.64741646e-02 0. 2.12765969e-02 0. 4.86322194e-02 0. 0.</_>
    <_>
      1. 1. 1. 8.33333313e-01 6.94444478e-01 5.55555582e-01
      4.72222239e-01 4.16666657e-01 4.44444448e-01 5.00000000e-01
      6.38888896e-01 5.55555582e-01 3.05555552e-01 4.16666657e-01
      6.38888896e-01 7.22222209e-01 8.33333313e-01 1. 1. 1. 1.
      2.22222224e-01 1.94444448e-01 1.94444448e-01 2.50000000e-01
      6.66666687e-01 7.22222209e-01 7.22222209e-01 7.22222209e-01
      7.22222209e-01 6.94444478e-01 6.11111104e-01 5.83333313e-01
      6.38888896e-01 7.22222209e-01 8.61111104e-01 1. 1. 1.
      9.44444478e-01 9.16666687e-01 9.16666687e-01 9.16666687e-01 1. 1.
      1. 9.44444478e-01 7.77777791e-01 6.66666687e-01 6.38888896e-01
      5.55555582e-01 5.83333313e-01 6.38888896e-01 6.11111104e-01
      6.66666687e-01 6.11111104e-01 6.38888896e-01 5.00000000e-01
      5.83333313e-01 6.38888896e-01 8.05555582e-01 1. 1. 1.
      9.44444478e-01 2.22222224e-01 1.94444448e-01 1.94444448e-01
      6.38888896e-01 7.50000000e-01 7.22222209e-01 7.50000000e-01
      7.22222209e-01 7.77777791e-01 7.77777791e-01 6.11111104e-01
      1.94444448e-01 1.66666672e-01 2.22222224e-01 9.16666687e-01 1. 1.
      1. 7.50000000e-01 5.83333313e-01 5.00000000e-01 4.72222239e-01
      5.27777791e-01 5.83333313e-01 6.38888896e-01 6.66666687e-01
      6.38888896e-01 6.66666687e-01 5.83333313e-01 5.55555582e-01
      6.66666687e-01 7.77777791e-01 1. 1. 1. 1. 9.16666687e-01
      8.88888896e-01 8.33333313e-01 7.77777791e-01 8.05555582e-01
      8.05555582e-01 5.27777791e-01 3.61111104e-01 3.33333343e-01
      3.33333343e-01 6.11111104e-01 6.66666687e-01 7.22222209e-01
      8.05555582e-01 9.44444478e-01 1. 1. 1. 9.16666687e-01
      5.00000000e-01 4.44444448e-01 3.61111104e-01 5.83333313e-01
      6.66666687e-01 6.94444478e-01 6.94444478e-01 7.50000000e-01
      6.66666687e-01 6.11111104e-01 4.44444448e-01 5.00000000e-01
      5.83333313e-01 7.50000000e-01 1. 1. 9.26470578e-01 9.26470578e-01
      9.33823526e-01 9.41176474e-01 7.13235319e-01 5.00000000e-01
      4.41176474e-01 4.70588237e-01 6.61764681e-01 6.91176474e-01
      7.35294104e-01 7.79411793e-01 7.94117630e-01 7.64705896e-01
      7.50000000e-01 6.69117630e-01 5.88235319e-01 5.36764681e-01
      5.44117630e-01 5.88235319e-01 6.69117630e-01 6.69117630e-01
      6.69117630e-01 6.69117630e-01 6.69117630e-01 6.98529422e-01
      6.98529422e-01 6.91176474e-01 6.76470578e-01 5.95588267e-01
      4.77941185e-01 4.92647052e-01 5.73529422e-01 9.48529422e-01 1. 1.
      0. 0. 0. 0. 0. 0. 0. 0. 0. 0. 0. 0. 0. 0. 0. 2.00000009e-03
      1.10000009e-02 1.40000004e-02 1.30000003e-02 1.02000006e-01
      2.06000015e-01 3.09000015e-01 8.33000064e-01 8.60000014e-01 1.
      4.08000022e-01 7.04000056e-01 2.12000012e-01 8.00000057e-02
      9.10000056e-02 3.00000012e-02 0. 1.20000001e-02 9.00000054e-03 0.
      0. 0. 0. 0. 0. 0. 0. 0. 0. 0. 0. 0. 0. 0. 0. 0. 0. 0. 0. 0. 0. 0.
      0. 0. 0. 0. 0. 0. 0. 0. 0. 0. 0. 0. 0. 0. 0. 0. 0. 0. 0. 0. 0. 0.
      0. 0. 0. 0. 0. 0. 0. 0. 0. 0. 0. 0. 0. 0. 0. 0. 0. 0. 0. 0. 0. 0.
      0. 0. 0. 0. 0. 0. 0. 0. 0. 0. 0. 0. 0. 0. 0. 0. 0. 0. 0. 0. 0. 0.
      0. 0. 0. 0. 0. 0. 0. 0. 0. 0. 0. 0. 0. 0. 0. 0. 0. 0. 0. 0. 0. 0.
      0. 0. 0. 0. 0. 0. 0. 0. 0. 0. 0. 0. 0. 0. 0. 0. 0. 0. 0. 0. 0. 0.
      0. 0. 0. 0. 0. 0. 0. 0. 0. 0. 0. 0. 0.</_>
    <_>
      0. 0. 0. 0. 0. 0. 9.41176474e-01 1. 7.05882370e-01 3.23529422e-01
      2.05882356e-01 1.76470593e-01 1.17647059e-01 1.17647059e-01
      1.76470593e-01 2.05882356e-01 1.76470593e-01 1.76470593e-01
      2.05882356e-01 2.35294119e-01 4.70588237e-01 8.52941155e-01
      9.41176474e-01 9.41176474e-01 9.41176474e-01 3.52941185e-01
      2.35294119e-01 2.05882356e-01 1.76470593e-01 6.17647052e-01
      6.17647052e-01 5.00000000e-01 3.52941185e-01 3.52941185e-01
      3.52941185e-01 0. 0. 0. 1.17647059e-01 7.64705896e-01
      9.41176474e-01 9.70588267e-01 8.52941155e-01 7.94117630e-01
      7.94117630e-01 9.11764681e-01 9.41176474e-01 9.70588267e-01
      9.70588267e-01 4.11764711e-01 2.94117659e-01 2.64705896e-01
      2.35294119e-01 6.17647052e-01 6.76470578e-01 6.17647052e-01
      6.47058845e-01 6.47058845e-01 5.88235319e-01 2.05882356e-01
      2.35294119e-01 2.64705896e-01 2.94117659e-01 9.41176474e-01
      9.70588267e-01 9.70588267e-01 8.23529422e-01 6.17647052e-01
      5.29411793e-01 4.41176474e-01 4.70588237e-01 4.11764711e-01
      3.52941185e-01 3.52941185e-01 3.82352948e-01 4.41176474e-01
      3.52941185e-01 4.11764711e-01 4.70588237e-01 5.88235319e-01
      7.94117630e-01 9.70588267e-01 9.41176474e-01 9.70588267e-01
      9.70588267e-01 9.70588267e-01 9.70588267e-01 9.70588267e-01
      5.88235319e-01 1.76470593e-01 1.17647059e-01 8.82352963e-02
      3.23529422e-01 9.70588267e-01 9.70588267e-01 9.70588267e-01
      9.70588267e-01 9.70588267e-01 9.70588267e-01 9.70588267e-01
      7.94117630e-01 5.00000000e-01 3.23529422e-01 2.35294119e-01
      1.47058830e-01 2.35294119e-01 2.94117659e-01 3.82352948e-01
      5.00000000e-01 4.41176474e-01 3.52941185e-01 2.64705896e-01
      4.41176474e-01 5.29411793e-01 7.64705896e-01 9.70588267e-01
      9.70588267e-01 1. 1.47058830e-01 1.17647059e-01 1.17647059e-01
      2.35294119e-01 8.82352948e-01 8.23529422e-01 8.23529422e-01
      8.23529422e-01 8.52941155e-01 8.23529422e-01 1.47058830e-01
      1.17647059e-01 8.82352963e-02 1.17647059e-01 1. 9.41176474e-01
      1.47058830e-01 0. 0. 1.68141589e-01 7.25663722e-01 9.91150439e-01
      8.40707958e-01 7.25663722e-01 6.28318608e-01 5.57522118e-01
      5.04424751e-01 4.51327443e-01 5.30973434e-01 6.28318608e-01
      6.19469047e-01 6.46017671e-01 6.63716793e-01 6.28318608e-01
      5.39822996e-01 5.30973434e-01 5.22123873e-01 5.30973434e-01
      5.75221241e-01 6.19469047e-01 6.28318608e-01 6.28318608e-01
      6.37168169e-01 6.37168169e-01 6.28318608e-01 5.13274312e-01
      5.04424751e-01 5.22123873e-01 5.39822996e-01 6.01769924e-01
      8.49557519e-01 1. 7.87610590e-01 2.65486725e-02 2.17606314e-02 0.
      5.93471806e-03 6.92383759e-03 4.94559808e-03 3.26409489e-02
      9.89119615e-03 3.95647855e-03 2.37388723e-02 1.97823923e-02
      1.87932737e-02 3.46191861e-02 3.65974270e-02 6.23145364e-02
      6.33036569e-02 1.01879321e-01 1.19683474e-01 2.34421358e-01
      3.16518277e-01 6.17210627e-01 9.19881284e-01 9.99999940e-01
      6.64688408e-01 2.36399591e-01 1.05835803e-01 3.85756642e-02
      3.75865474e-02 1.08803157e-02 7.91295711e-03 6.92383759e-03
      1.08803157e-02 9.89119639e-04 3.95647855e-03 5.93471806e-03
      1.97823928e-03 7.91295711e-03 4.94559808e-03 1.97823928e-03
      1.97823928e-03 2.96735903e-03 1.97823928e-03 9.89119639e-04 0.
      1.97823928e-03 0. 1.97823928e-03 0. 0. 0. 0. 1.97823928e-03
      9.89119639e-04 0. 0. 0. 0. 0. 0. 0. 0. 9.89119639e-04 0. 0. 0. 0.
      0. 1.97823928e-03 0. 0. 0. 1.97823928e-03 0. 0. 0. 0. 0. 0. 0. 0.
      0. 0. 0. 0. 9.89119639e-04 0. 0. 0. 0. 0. 0. 0. 0. 0. 0. 0. 0.
      9.89119639e-04 0. 0. 0. 0. 0. 0. 0. 0. 0. 0. 0. 0. 0.
      9.89119639e-04 0. 0. 0. 0. 0. 0. 0. 0. 0. 2.96735903e-03 0. 0. 0.
      0. 9.89119639e-04 9.89119639e-04 0. 0. 0. 0. 0. 0. 0. 0. 0. 0. 0.
      0. 0. 0. 0. 0. 0. 0. 0. 0. 0. 0. 0. 0. 0. 0. 0. 0. 0. 0. 0. 0. 0.
      0. 0. 0. 9.89119639e-04 0. 9.89119639e-04 0. 0. 0. 0.
      4.94559808e-03 0. 0. 9.89119639e-04 0. 0. 0. 3.95647855e-03
      9.89119639e-04 0.</_>
    <_>
      5.27777791e-01 3.61111104e-01 3.61111104e-01 5.27777791e-01
      5.83333313e-01 1.94444448e-01 2.22222224e-01 3.33333343e-01
      5.83333313e-01 6.38888896e-01 6.38888896e-01 7.50000000e-01
      5.27777791e-01 5.27777791e-01 6.11111104e-01 1. 1. 1.
      8.05555582e-01 0. 0. 0. 1.94444448e-01 8.33333313e-01
      8.33333313e-01 8.33333313e-01 8.61111104e-01 8.33333313e-01
      8.05555582e-01 7.50000000e-01 1.66666672e-01 0. 2.77777780e-02
      1.94444448e-01 8.61111104e-01 1. 1. 1. 9.44444478e-01
      8.88888896e-01 8.88888896e-01 9.16666687e-01 1. 1. 1. 1.
      8.88888896e-01 6.94444478e-01 5.83333313e-01 5.00000000e-01
      4.72222239e-01 5.00000000e-01 5.55555582e-01 5.83333313e-01
      5.83333313e-01 5.83333313e-01 5.55555582e-01 5.27777791e-01
      4.16666657e-01 4.72222239e-01 6.11111104e-01 7.77777791e-01 1. 1.
      1. 9.16666687e-01 7.77777791e-01 7.22222209e-01 6.11111104e-01
      5.55555582e-01 5.55555582e-01 5.83333313e-01 5.27777791e-01
      5.83333313e-01 5.27777791e-01 0. 0. 0. 0. 7.77777791e-01
      9.16666687e-01 1. 1. 1. 1. 9.16666687e-01 8.88888896e-01
      8.88888896e-01 8.88888896e-01 9.16666687e-01 8.88888896e-01
      6.38888896e-01 4.44444448e-01 2.77777791e-01 2.22222224e-01
      3.88888896e-01 4.72222239e-01 5.83333313e-01 6.94444478e-01
      7.77777791e-01 8.61111104e-01 1. 1. 1. 9.16666687e-01
      7.50000000e-01 6.66666687e-01 6.38888896e-01 6.38888896e-01
      6.38888896e-01 5.83333313e-01 5.55555582e-01 5.27777791e-01
      4.72222239e-01 3.61111104e-01 2.50000000e-01 1.94444448e-01
      2.50000000e-01 3.61111104e-01 6.66666687e-01 1. 1. 1.
      9.44444478e-01 2.22222224e-01 1.11111112e-01 5.55555560e-02
      2.77777780e-02 6.94444478e-01 7.22222209e-01 7.77777791e-01
      8.05555582e-01 7.77777791e-01 7.77777791e-01 6.94444478e-01
      3.88888896e-01 6.56250000e-01 6.25000000e-01 6.25000000e-01
      7.50000000e-01 9.58333373e-01 9.68750000e-01 9.47916687e-01
      9.37500000e-01 9.68750000e-01 9.68750000e-01 9.58333373e-01
      9.68750000e-01 9.89583373e-01 1. 9.68750000e-01 9.68750000e-01
      9.16666687e-01 8.75000000e-01 8.95833373e-01 9.27083373e-01
      9.37500000e-01 9.58333373e-01 9.89583373e-01 1. 9.89583373e-01 1.
      1. 8.75000000e-01 8.54166687e-01 8.54166687e-01 8.64583373e-01
      8.64583373e-01 8.54166687e-01 6.87500000e-01 7.39583373e-01
      7.60416687e-01 0. 0. 0. 0. 0. 0. 0. 0. 0. 0. 0. 0. 0. 0. 0. 0. 0.
      3.84615385e-03 0. 1.44230770e-02 1.63461547e-02 3.75000015e-02
      1.60576925e-01 2.22115383e-01 4.90384609e-01 4.07692313e-01 1.
      7.32692301e-01 5.04807711e-01 5.02884626e-01 2.26923078e-01
      4.51923087e-02 1.71153843e-01 1.26923084e-01 2.30769236e-02
      2.01923084e-02 0. 9.61538462e-04 0. 0. 0. 0. 0. 0. 0. 0. 0. 0. 0.
      0. 0. 0. 0. 0. 0. 0. 0. 0. 0. 0. 0. 0. 0. 0. 0. 0. 0. 0. 0. 0. 0.
      0. 0. 0. 0. 0. 0. 0. 0. 0. 0. 0. 0. 0. 0. 0. 0. 0. 0. 0. 0. 0. 0.
      0. 0. 0. 0. 0. 0. 0. 0. 0. 0. 0. 0. 0. 0. 0. 0. 0. 0. 0. 0. 0. 0.
      0. 0. 0. 0. 0. 0. 0. 0. 0. 0. 0. 0. 0. 0. 0. 0. 0. 0. 0. 0. 0. 0.
      0. 0. 0. 0. 0. 0. 0. 0. 0. 0. 0. 0. 0. 0. 0. 0. 0. 0. 0. 0. 0. 0.
      0. 0. 0. 0. 0. 0. 0. 0. 0. 0. 0. 0. 0. 0. 0. 0. 0. 0. 0. 0. 0.</_>
    <_>
      8.33333358e-02 3.88888896e-01 7.77777791e-01 1. 9.72222209e-01
      8.05555582e-01 6.38888896e-01 4.44444448e-01 2.77777791e-01
      1.94444448e-01 2.22222224e-01 5.00000000e-01 5.83333313e-01
      3.61111104e-01 1.94444448e-01 1.94444448e-01 4.16666657e-01
      4.72222239e-01 7.77777791e-01 9.72222209e-01 8.88888896e-01 1.
      8.05555582e-01 1.94444448e-01 1.11111112e-01 5.55555560e-02
      5.55555582e-01 6.94444478e-01 7.50000000e-01 7.22222209e-01
      7.22222209e-01 7.22222209e-01 7.22222209e-01 5.55555582e-01
      5.00000000e-01 5.27777791e-01 7.50000000e-01 1. 1. 1. 1.
      9.44444478e-01 8.88888896e-01 9.72222209e-01 1. 1. 1.
      7.22222209e-01 2.77777780e-02 0. 0. 6.66666687e-01 7.50000000e-01
      7.50000000e-01 6.94444478e-01 5.00000000e-01 4.16666657e-01
      3.05555552e-01 1.94444448e-01 3.33333343e-01 5.55555582e-01
      8.33333313e-01 1. 1. 1. 9.44444478e-01 7.22222209e-01
      6.38888896e-01 5.55555582e-01 5.00000000e-01 5.83333313e-01
      5.55555582e-01 5.83333313e-01 5.83333313e-01 5.83333313e-01
      5.55555582e-01 4.44444448e-01 5.27777791e-01 6.38888896e-01
      8.61111104e-01 1. 1. 1. 7.22222209e-01 5.00000000e-01
      3.61111104e-01 2.77777791e-01 3.88888896e-01 5.00000000e-01
      5.55555582e-01 6.11111104e-01 5.55555582e-01 5.00000000e-01
      3.61111104e-01 4.44444448e-01 5.83333313e-01 7.22222209e-01 1. 1.
      1. 1. 1. 1. 1. 1. 1. 2.77777780e-02 0. 0. 8.33333358e-02 1. 1. 1.
      1. 1. 1. 1. 1. 8.88888896e-01 6.94444478e-01 6.38888896e-01
      6.38888896e-01 6.11111104e-01 5.83333313e-01 5.55555582e-01
      5.55555582e-01 4.44444448e-01 3.61111104e-01 3.88888896e-01
      1.94444448e-01 2.77777791e-01 4.72222239e-01 8.88888896e-01 1. 1.
      8.33333313e-01 9.18181777e-01 7.90909052e-01 7.27272689e-01
      6.54545426e-01 6.36363626e-01 7.54545450e-01 7.90909052e-01
      8.09090912e-01 8.63636315e-01 8.99999976e-01 9.72727239e-01
      9.99999940e-01 9.99999940e-01 9.63636339e-01 9.36363578e-01
      9.27272677e-01 8.72727275e-01 7.72727251e-01 7.90909052e-01
      8.18181813e-01 7.99999952e-01 8.27272713e-01 8.81818175e-01
      8.54545414e-01 8.63636315e-01 8.63636315e-01 8.27272713e-01
      7.90909052e-01 7.36363590e-01 6.99999988e-01 7.36363590e-01
      6.45454526e-01 6.18181825e-01 6.09090865e-01 4.99999970e-01
      5.18181801e-01 0. 0. 0. 0. 0. 0. 0. 0. 0. 0. 0. 0. 0. 0. 0. 0. 0.
      8.97666067e-03 4.48833033e-03 1.70556549e-02 2.96229813e-02
      7.71992803e-02 2.41472185e-01 5.72710991e-01 8.53680432e-01
      4.72172350e-01 1. 4.61400360e-01 2.05565542e-01 2.10951537e-01
      1.16696589e-01 3.32136452e-02 1.88509878e-02 4.84739691e-02
      6.28366275e-03 1.34649910e-02 0. 0. 1.79533218e-03 8.97666090e-04
      0. 0. 0. 0. 0. 0. 0. 0. 0. 0. 0. 0. 0. 0. 0. 0. 0. 0. 0. 0. 0. 0.
      0. 0. 0. 0. 0. 0. 0. 0. 0. 0. 0. 0. 0. 0. 0. 0. 0. 0. 0. 0. 0. 0.
      0. 0. 0. 0. 0. 0. 0. 0. 0. 0. 0. 0. 0. 0. 0. 0. 0. 0. 0. 0. 0. 0.
      0. 0. 0. 0. 0. 0. 0. 0. 0. 0. 0. 0. 0. 0. 0. 0. 0. 0. 0. 0. 0. 0.
      0. 0. 0. 0. 0. 0. 0. 0. 0. 0. 0. 0. 0. 0. 0. 0. 0. 0. 0. 0. 0. 0.
      0. 0. 0. 0. 0. 0. 0. 0. 0. 0. 0. 0. 0. 0. 0. 0. 0. 0. 0. 0. 0. 0.
      0. 0. 0. 0. 0. 0. 0. 0.</_>
    <_>
      0. 0. 0. 1.47058830e-01 4.41176474e-01 2.64705896e-01
      2.94117648e-02 1.76470593e-01 7.64705896e-01 4.11764711e-01
      5.88235296e-02 2.35294119e-01 6.17647052e-01 2.35294119e-01
      6.47058845e-01 6.17647052e-01 0. 0. 0. 0. 4.11764711e-01
      7.94117630e-01 7.94117630e-01 2.94117659e-01 1.47058830e-01
      1.47058830e-01 1.76470593e-01 1.76470593e-01 1.47058830e-01
      2.05882356e-01 2.05882356e-01 1.47058830e-01 8.82352963e-02
      8.82352963e-02 0. 0. 0. 0. 0. 8.82352963e-02 8.82352963e-02 0. 0.
      0. 0. 2.05882356e-01 3.82352948e-01 4.70588237e-01 4.41176474e-01
      4.41176474e-01 3.23529422e-01 3.23529422e-01 2.94117659e-01
      2.94117659e-01 3.23529422e-01 3.52941185e-01 3.23529422e-01
      2.35294119e-01 5.88235296e-02 0. 0. 0. 5.88235296e-02
      2.05882356e-01 2.94117659e-01 3.82352948e-01 3.82352948e-01
      3.52941185e-01 3.23529422e-01 3.23529422e-01 3.23529422e-01
      3.23529422e-01 3.82352948e-01 4.41176474e-01 3.82352948e-01
      2.64705896e-01 0. 0. 0. 0. 5.00000000e-01 6.17647052e-01
      7.05882370e-01 2.35294119e-01 2.35294119e-01 1.76470593e-01
      1.76470593e-01 1.76470593e-01 2.05882356e-01 2.05882356e-01
      2.94117659e-01 3.52941185e-01 2.64705896e-01 1.47058830e-01 0. 0.
      0. 0. 0. 0. 0. 0. 0. 7.64705896e-01 7.94117630e-01 7.64705896e-01
      0. 0. 0. 0. 0. 0. 0. 0. 0. 0. 0. 0. 0. 0. 2.35294119e-01
      7.94117630e-01 7.94117630e-01 2.94117659e-01 0. 0. 0. 0. 0. 0. 0.
      0. 1.17647059e-01 0. 0. 1. 1.88679248e-02 1.88679248e-02
      1.88679248e-02 1.88679248e-02 1.88679248e-02 1.88679248e-02
      6.41509414e-01 8.49056602e-01 1. 6.79245293e-01 5.28301895e-01
      5.84905684e-01 5.66037774e-01 5.66037774e-01 5.28301895e-01
      5.09433985e-01 4.90566045e-01 5.66037774e-01 7.54716992e-01
      7.54716992e-01 7.73584902e-01 6.60377383e-01 5.66037774e-01
      4.71698105e-01 5.66037774e-01 5.66037774e-01 5.66037774e-01
      6.22641504e-01 6.22641504e-01 6.79245293e-01 9.43396211e-01
      8.49056602e-01 5.28301895e-01 0. 1.88679248e-02 1.88679248e-02 0.
      0. 0. 0. 0. 0. 0. 0. 0. 0. 0. 0. 0. 0. 0. 0. 0. 0. 0. 0. 0. 0. 0.
      0. 0. 0. 0. 0. 0. 0. 0. 0. 0. 0. 0. 0. 0. 0. 0. 0. 0. 0. 0. 0. 0.
      0. 0. 0. 0. 0. 0. 0. 0. 0. 0. 0. 0. 0. 0. 0. 0. 0. 0. 0. 0. 0. 0.
      0. 0. 0. 0. 0. 0. 0. 0. 0. 0. 0. 0. 0. 0. 0. 0. 0. 0. 0. 0. 0. 0.
      0. 0. 0. 0. 0. 0. 0. 0. 0. 3.49040143e-03 0. 0. 1.74520072e-03 0.
      1.74520072e-03 9.59860347e-03 4.36300179e-03 1.13438051e-02
      2.79232115e-02 1.39616057e-02 6.71902299e-02 8.02792311e-02
      1.17801048e-01 2.49563709e-01 8.46422315e-02 6.10820234e-01
      1.16055846e-01 1. 6.97207689e-01 3.11518341e-01 4.24956381e-01
      2.01570690e-01 8.11518356e-02 1.04712043e-02 7.67888278e-02
      2.00698078e-02 2.96684131e-02 6.10820251e-03 4.36300179e-03
      8.72600358e-04 4.36300179e-03 1.74520072e-03 0. 8.72600358e-04 0.
      0. 0. 0. 0. 0. 0. 0. 0. 0. 0. 0. 0. 0. 0. 0. 0. 0. 0. 0. 0. 0. 0.
      0. 0. 0. 0. 0. 0. 0. 0. 0. 0. 0. 0. 0. 0. 0. 0. 0. 0. 0. 0. 0. 0.
      0. 0.</_>
    <_>
      0. 4.44444448e-01 5.83333313e-01 2.50000000e-01 2.50000000e-01
      2.77777791e-01 6.66666687e-01 6.11111104e-01 3.33333343e-01
      1.66666672e-01 1.66666672e-01 1.94444448e-01 2.50000000e-01
      3.61111104e-01 4.44444448e-01 7.50000000e-01 1. 1. 9.72222209e-01
      1.38888896e-01 1.66666672e-01 1.66666672e-01 1.66666672e-01
      6.11111104e-01 5.83333313e-01 5.27777791e-01 4.44444448e-01
      4.72222239e-01 5.00000000e-01 1.94444448e-01 0. 0. 0. 0.
      8.33333313e-01 8.61111104e-01 8.88888896e-01 8.05555582e-01
      7.77777791e-01 8.05555582e-01 9.16666687e-01 9.16666687e-01
      9.16666687e-01 8.33333313e-01 7.77777791e-01 8.05555582e-01
      8.33333313e-01 8.33333313e-01 8.05555582e-01 5.55555582e-01
      3.88888896e-01 2.50000000e-01 1.94444448e-01 2.50000000e-01
      4.72222239e-01 5.55555582e-01 6.94444478e-01 7.77777791e-01
      9.16666687e-01 9.16666687e-01 9.16666687e-01 9.16666687e-01
      9.44444478e-01 9.16666687e-01 9.16666687e-01 9.16666687e-01
      1.94444448e-01 8.33333358e-02 1.11111112e-01 1.11111112e-01
      7.22222209e-01 9.16666687e-01 9.16666687e-01 9.16666687e-01
      9.44444478e-01 9.44444478e-01 9.44444478e-01 9.16666687e-01
      9.16666687e-01 5.83333313e-01 4.72222239e-01 3.61111104e-01
      3.33333343e-01 3.88888896e-01 4.16666657e-01 5.27777791e-01
      4.72222239e-01 5.00000000e-01 4.72222239e-01 4.16666657e-01
      5.27777791e-01 6.38888896e-01 7.22222209e-01 8.88888896e-01
      8.33333313e-01 7.77777791e-01 6.38888896e-01 5.27777791e-01
      4.72222239e-01 3.33333343e-01 3.33333343e-01 3.88888896e-01
      3.61111104e-01 2.77777791e-01 2.77777791e-01 3.33333343e-01
      2.22222224e-01 3.33333343e-01 3.88888896e-01 5.55555582e-01
      8.33333313e-01 9.72222209e-01 9.72222209e-01 9.44444478e-01
      4.16666657e-01 3.05555552e-01 2.50000000e-01 2.77777791e-01
      5.00000000e-01 5.83333313e-01 5.83333313e-01 5.55555582e-01
      5.27777791e-01 3.88888896e-01 3.05555552e-01 3.88888896e-01
      4.72222239e-01 4.72222239e-01 2.77777780e-02 0. 0. 0. 0. 0. 0. 0.
      5.29411793e-01 9.80392218e-01 8.33333373e-01 6.47058845e-01
      5.78431368e-01 5.39215684e-01 5.88235319e-01 7.25490212e-01
      7.84313738e-01 7.84313738e-01 7.54902005e-01 7.94117689e-01
      7.15686321e-01 6.56862795e-01 6.47058845e-01 5.98039210e-01
      5.88235319e-01 6.37254953e-01 6.56862795e-01 7.15686321e-01
      7.64705896e-01 7.84313738e-01 7.45098054e-01 6.86274529e-01
      6.86274529e-01 6.76470637e-01 6.47058845e-01 5.58823526e-01
      5.68627477e-01 6.56862795e-01 7.45098054e-01 8.43137264e-01
      9.21568632e-01 1. 4.90196109e-01 1.76470593e-01 7.76942372e-02
